{
  "generator_name": "G1",
  "activation": "relu",
  "layers": [
    {
      "type": "linear",
      "weight": [
        [
          -0.41368070244789124,
          0.3123413622379303,
          0.22837449610233307,
          1.6551440954208374,
          0.2596805691719055,
          -0.2371903955936432,
          0.08994388580322266,
          -0.3350699543952942,
          0.13613149523735046,
          -0.2271217703819275,
          0.11455339193344116
        ],
        [
          0.21146564185619354,
          -0.23585808277130127,
          -0.046816304326057434,
          0.18983234465122223,
          -0.15083721280097961,
          -0.23041312396526337,
          0.0829903706908226,
          -0.140782430768013,
          -0.26105332374572754,
          -0.10772167146205902,
          0.2539988160133362
        ],
        [
          -0.08668409287929535,
          -0.17122069001197815,
          0.031768620014190674,
          0.08308574557304382,
          -0.22687843441963196,
          -0.259762704372406,
          -0.29425182938575745,
          0.2495884895324707,
          0.2267976999282837,
          0.06727758049964905,
          0.09521105885505676
        ],
        [
          -2.2278919219970703,
          2.5456643104553223,
          2.2559587955474854,
          -2.2243120670318604,
          0.7839481830596924,
          -1.4282128810882568,
          1.0452927350997925,
          -0.8373739719390869,
          -0.17401517927646637,
          0.06464886665344238,
          0.22981828451156616
        ],
        [
          0.16807213425636292,
          0.10622948408126831,
          0.14797982573509216,
          -0.2744505703449249,
          0.1730039417743683,
          0.1246744692325592,
          -0.17326620221138,
          -0.24652330577373505,
          -0.2784024477005005,
          0.19360867142677307,
          -0.12246900796890259
        ],
        [
          -0.448495477437973,
          0.25105881690979004,
          0.16498011350631714,
          1.7446138858795166,
          0.24819190800189972,
          -0.1743522733449936,
          -0.14016996324062347,
          -0.14074963331222534,
          0.26592111587524414,
          -0.23942795395851135,
          -0.000975489616394043
        ],
        [
          -0.25449925661087036,
          0.4440169036388397,
          0.6233389973640442,
          1.6173467636108398,
          -0.13402819633483887,
          -0.35395529866218567,
          0.038774002343416214,
          -0.13563045859336853,
          -0.1543523073196411,
          -0.28804320096969604,
          0.11242920160293579
        ],
        [
          -0.4902726411819458,
          0.8740209937095642,
          0.8155791163444519,
          1.818928599357605,
          -0.033985015004873276,
          -0.47000372409820557,
          0.14066903293132782,
          -0.5756478905677795,
          -0.22642356157302856,
          -0.2498224973678589,
          -0.20305892825126648
        ],
        [
          -2.2336418628692627,
          2.6306588649749756,
          2.3676364421844482,
          -2.4532370567321777,
          0.08812832087278366,
          -1.240373969078064,
          0.19570308923721313,
          -0.7256953120231628,
          -0.04053610563278198,
          -0.17509840428829193,
          0.0806664526462555
        ],
        [
          -0.7107282280921936,
          0.9654527902603149,
          0.878158688545227,
          1.3842288255691528,
          0.3612152338027954,
          -0.41946181654930115,
          0.3670358955860138,
          -0.2743294835090637,
          -0.11662730574607849,
          -0.001728147268295288,
          -0.2681814432144165
        ],
        [
          -0.15705356001853943,
          0.6792728304862976,
          0.7249760031700134,
          1.2242140769958496,
          -0.003257438773289323,
          -0.2986280620098114,
          0.2593890130519867,
          -0.4538370966911316,
          -0.27822691202163696,
          -0.0763552337884903,
          0.15641862154006958
        ]
      ],
      "bias": [
        2.1915903091430664,
        -0.13908228278160095,
        -0.09522305428981781,
        0.13514217734336853,
        -0.29775264859199524,
        2.342759609222412,
        2.0429370403289795,
        2.521381139755249,
        0.807867169380188,
        2.3385016918182373,
        1.7669811248779297
      ]
    },
    {
      "type": "relu"
    },
    {
      "type": "linear",
      "weight": [
        [
          1.4545068740844727,
          -0.18137261271476746,
          -0.24125780165195465,
          -4.024427890777588,
          -0.14156416058540344,
          1.4294099807739258,
          1.4482860565185547,
          1.3732194900512695,
          -2.870213270187378,
          1.2803031206130981,
          1.4847484827041626
        ],
        [
          1.0489786863327026,
          0.009199735708534718,
          -0.059894442558288574,
          -2.544581651687622,
          0.2200702428817749,
          1.224740982055664,
          1.3499943017959595,
          1.567556619644165,
          -0.9645668268203735,
          1.7143644094467163,
          1.110504388809204
        ]
      ],
      "bias": [
        0.72481769323349,
        1.8852312564849854
      ]
    }
  ],
  "feature_columns": [
    "demand",
    "total_wind_generation_capacity",
    "total_generation_capacity",
    "residual_demand",
    "previous_generation_capacity",
    "previous_demand",
    "next_generation_capacity",
    "next_demand",
    "own_generation_capacity",
    "previous_own_generation_capacity",
    "next_own_generation_capacity"
  ],
  "target_columns": [
    "target_bid_G1_B1",
    "target_bid_G1_B2"
  ]
}