{
  "generator_name": "G1",
  "activation": "relu",
  "layers": [
    {
      "type": "linear",
      "weight": [
        [
          -0.5831433534622192,
          0.3221827447414398,
          0.4541241228580475,
          0.8008281588554382,
          0.23513977229595184,
          -0.05593244731426239,
          -0.07392287254333496,
          -0.0411188006401062
        ],
        [
          -1.400083065032959,
          1.1297016143798828,
          0.9407839179039001,
          -1.6907390356063843,
          0.12444866448640823,
          -0.1644142121076584,
          0.08472469449043274,
          0.04607614874839783
        ],
        [
          -0.48084622621536255,
          0.12900075316429138,
          0.4628709554672241,
          1.1536599397659302,
          0.21378235518932343,
          0.10231008380651474,
          0.04736512899398804,
          0.279825359582901
        ],
        [
          -0.24725741147994995,
          0.430929958820343,
          0.24143575131893158,
          0.8658275008201599,
          0.21982969343662262,
          0.07997673749923706,
          -0.10427050292491913,
          0.07602965831756592
        ],
        [
          -0.09265905618667603,
          -0.15199699997901917,
          0.05866292119026184,
          -0.2342468798160553,
          0.1278860867023468,
          -0.0669931173324585,
          0.21142396330833435,
          0.155735582113266
        ],
        [
          -1.2955031394958496,
          0.6546995043754578,
          0.3614364266395569,
          0.37215492129325867,
          -0.4661136269569397,
          0.01389097049832344,
          -0.23206594586372375,
          0.029797911643981934
        ],
        [
          0.17017844319343567,
          0.05387002229690552,
          -0.2758973240852356,
          -0.34599199891090393,
          -0.3074931502342224,
          -0.35207808017730713,
          0.07596814632415771,
          0.0478459894657135
        ],
        [
          0.2500537037849426,
          0.047761209309101105,
          -0.09604323655366898,
          1.3446921110153198,
          0.16294161975383759,
          -0.18433772027492523,
          0.21517762541770935,
          0.02908197045326233
        ],
        [
          0.19804468750953674,
          -0.02728286385536194,
          0.15978708863258362,
          0.01704460382461548,
          -0.2366584688425064,
          -0.03537377715110779,
          0.04916805028915405,
          -0.3396557867527008
        ],
        [
          0.02154812216758728,
          -0.27508920431137085,
          0.09449303150177002,
          -0.1890694946050644,
          0.028360366821289062,
          0.11526772379875183,
          -0.18150168657302856,
          0.17087998986244202
        ],
        [
          -0.2767030596733093,
          0.07478314638137817,
          -0.1095079630613327,
          -0.24086147546768188,
          0.024925023317337036,
          -0.08457991480827332,
          0.11659225821495056,
          -0.0681595504283905
        ]
      ],
      "bias": [
        1.3770582675933838,
        0.44612953066825867,
        0.9939690232276917,
        1.1740200519561768,
        -0.18252350389957428,
        1.4738551378250122,
        0.026927530765533447,
        0.7107096910476685,
        -0.3055168390274048,
        -0.260345995426178,
        -0.345890074968338
      ]
    },
    {
      "type": "relu"
    },
    {
      "type": "linear",
      "weight": [
        [
          0.26380205154418945,
          -0.04821091890335083,
          0.01682138442993164,
          -0.15865525603294373,
          -0.09868007898330688,
          -0.15522629022598267,
          -0.09924039244651794,
          -0.22680841386318207,
          0.21546661853790283,
          0.10938403010368347,
          0.23308664560317993
        ],
        [
          0.07427862286567688,
          -0.061004638671875,
          -0.2583143711090088,
          -0.29209813475608826,
          -0.15105783939361572,
          0.1450573205947876,
          0.20301109552383423,
          -0.2793242037296295,
          -0.030591249465942383,
          0.2963191866874695,
          -0.06755995750427246
        ],
        [
          0.8824350833892822,
          -1.574772834777832,
          0.4205934703350067,
          0.7082523703575134,
          -0.11959661543369293,
          1.4163850545883179,
          0.18125957250595093,
          0.735169529914856,
          0.12879347801208496,
          0.042967289686203,
          0.16115334630012512
        ],
        [
          0.14384181797504425,
          2.6247096061706543,
          -0.0731411799788475,
          -0.005481826141476631,
          0.22250473499298096,
          0.6450204849243164,
          -0.22117820382118225,
          -0.6056343913078308,
          0.24367821216583252,
          -0.14772863686084747,
          0.1885453164577484
        ],
        [
          -0.33594492077827454,
          0.21245478093624115,
          -0.19641725718975067,
          0.07103516906499863,
          0.17157578468322754,
          -0.06459994614124298,
          0.013298064470291138,
          -0.07846721261739731,
          0.19668671488761902,
          0.09835019707679749,
          0.06707847118377686
        ],
        [
          -0.14753080904483795,
          0.21711939573287964,
          0.15080346167087555,
          -0.30632296204566956,
          0.04788017272949219,
          -0.014746099710464478,
          0.1876516044139862,
          0.0279286727309227,
          -0.2948491871356964,
          -0.14153069257736206,
          -0.21453213691711426
        ],
        [
          1.088945746421814,
          -1.456520915031433,
          0.5718491077423096,
          0.8347168564796448,
          0.1988200545310974,
          0.9008995294570923,
          0.15926316380500793,
          0.668310821056366,
          -0.10248494148254395,
          -0.08172278106212616,
          0.08866900205612183
        ],
        [
          0.7331933379173279,
          -1.4630833864212036,
          0.5870133638381958,
          0.985062837600708,
          0.2311873435974121,
          1.3334836959838867,
          -0.2597382962703705,
          0.5042809247970581,
          0.03221115469932556,
          0.27158623933792114,
          -0.14995940029621124
        ],
        [
          -0.08904293179512024,
          -0.20542378723621368,
          -0.02516055665910244,
          -0.038394853472709656,
          0.16026386618614197,
          -0.2959054112434387,
          0.2401755452156067,
          0.011749418452382088,
          -0.1729799211025238,
          0.2894896864891052,
          0.2063865065574646
        ],
        [
          0.0008171155350282788,
          2.4703903198242188,
          -0.1349024474620819,
          -0.04223411902785301,
          0.21712958812713623,
          0.3193277418613434,
          0.2112610936164856,
          -0.3679169714450836,
          0.16617736220359802,
          0.2894137501716614,
          0.28238868713378906
        ],
        [
          0.9890437126159668,
          -1.1566123962402344,
          0.8515732884407043,
          0.6141252517700195,
          -0.008968710899353027,
          1.311787486076355,
          0.22270196676254272,
          0.49792832136154175,
          0.22272539138793945,
          -0.08127500116825104,
          -0.26831743121147156
        ]
      ],
      "bias": [
        -0.21533682942390442,
        -0.1631879061460495,
        0.6537048816680908,
        -0.23978523910045624,
        0.08973943442106247,
        -0.021757926791906357,
        1.0428422689437866,
        1.1032190322875977,
        0.006277881562709808,
        0.4098595976829529,
        0.8111292719841003
      ]
    },
    {
      "type": "relu"
    },
    {
      "type": "linear",
      "weight": [
        [
          -0.009487509727478027,
          -0.23046240210533142,
          1.1688717603683472,
          -2.7428157329559326,
          -0.2222731113433838,
          -0.0057070436887443066,
          0.7363511919975281,
          1.0398924350738525,
          -0.19920986890792847,
          -1.907545804977417,
          0.5976855158805847
        ],
        [
          -0.14910189807415009,
          -0.049339741468429565,
          0.6643330454826355,
          -1.632206678390503,
          -0.24595282971858978,
          -0.08073431998491287,
          0.8487789034843445,
          0.993824303150177,
          0.19805225729942322,
          0.18311895430088043,
          0.9207186698913574
        ]
      ],
      "bias": [
        0.4068141579627991,
        1.1446284055709839
      ]
    }
  ],
  "feature_columns": [
    "demand",
    "total_wind_generation_capacity",
    "total_generation_capacity",
    "residual_demand",
    "next_generation_capacity",
    "next_demand",
    "own_generation_capacity",
    "next_own_generation_capacity"
  ],
  "target_columns": [
    "target_bid_G1_B1",
    "target_bid_G1_B2"
  ]
}