{
  "generator_name": "G1",
  "activation": "relu",
  "layers": [
    {
      "type": "linear",
      "weight": [
        [
          -0.30772197246551514,
          0.11544192582368851,
          0.15410423278808594,
          0.15331578254699707,
          0.6256681084632874,
          -0.4663700461387634,
          0.02968171238899231,
          -0.05756640434265137
        ],
        [
          1.086143970489502,
          -0.5771802067756653,
          -0.862640917301178,
          0.9227098226547241,
          0.1615079641342163,
          -0.09979471564292908,
          -0.13445185124874115,
          -0.008941948413848877
        ],
        [
          -0.7818283438682556,
          1.0389851331710815,
          0.6419050693511963,
          -0.5932652950286865,
          -1.378645658493042,
          0.8184767365455627,
          -0.3149721920490265,
          -0.05462139844894409
        ],
        [
          -1.2804526090621948,
          0.6521841287612915,
          1.065577507019043,
          -0.149672269821167,
          -1.0463448762893677,
          0.7444378733634949,
          -0.27976053953170776,
          -0.14241166412830353
        ],
        [
          0.01056721806526184,
          -0.03856748342514038,
          -0.13851004838943481,
          -0.33860015869140625,
          0.2834102213382721,
          0.1493835747241974,
          0.34703758358955383,
          -0.08081680536270142
        ],
        [
          0.1569162905216217,
          -0.24974265694618225,
          0.03422576189041138,
          -0.1191912442445755,
          -0.10865987837314606,
          0.076229989528656,
          0.34448888897895813,
          -0.14607085287570953
        ],
        [
          -1.2793667316436768,
          0.7854335904121399,
          1.0214616060256958,
          -0.21554426848888397,
          -1.0346100330352783,
          0.7783514857292175,
          0.14551928639411926,
          0.11948761343955994
        ],
        [
          -0.12475116550922394,
          0.047603487968444824,
          -0.33151695132255554,
          -0.1829482614994049,
          -0.1696978360414505,
          0.2981051504611969,
          -0.26834726333618164,
          -0.297887921333313
        ],
        [
          -0.47871389985084534,
          -0.11950501799583435,
          0.1828085035085678,
          -0.053670734167099,
          1.7231554985046387,
          -1.0503613948822021,
          0.2887217104434967,
          0.06692206859588623
        ],
        [
          0.4163542091846466,
          -0.10591393709182739,
          -0.49959129095077515,
          1.21334969997406,
          0.05871059000492096,
          -0.00717316847294569,
          -0.21093523502349854,
          0.2408040463924408
        ],
        [
          -2.731172561645508,
          1.8143130540847778,
          1.7825006246566772,
          -2.1803574562072754,
          0.01967175304889679,
          -0.019778544083237648,
          -0.04319533705711365,
          0.31475892663002014
        ]
      ],
      "bias": [
        0.5546922087669373,
        -0.13510961830615997,
        0.8494696617126465,
        0.5622009634971619,
        -0.31202635169029236,
        -0.22221146523952484,
        0.6110085844993591,
        -0.000670313835144043,
        0.09181785583496094,
        0.7057718634605408,
        0.10481110960245132
      ]
    },
    {
      "type": "relu"
    },
    {
      "type": "linear",
      "weight": [
        [
          0.43825089931488037,
          0.3482753038406372,
          0.9566259980201721,
          0.8346187472343445,
          0.216732919216156,
          0.24474292993545532,
          1.009390950202942,
          -0.07154498994350433,
          -0.5000068545341492,
          0.30924805998802185,
          -1.6175271272659302
        ],
        [
          -0.2438834011554718,
          0.26438289880752563,
          -0.02276131510734558,
          -0.2785199284553528,
          -0.1469479203224182,
          -0.13356156647205353,
          -0.05383686721324921,
          -0.1969694346189499,
          0.13409322500228882,
          -0.05455537140369415,
          0.16968223452568054
        ],
        [
          0.002123991260305047,
          -0.7940173745155334,
          -0.3779882490634918,
          -0.47083044052124023,
          0.11303627490997314,
          -0.19468846917152405,
          -0.2011846899986267,
          0.042924702167510986,
          0.11761602014303207,
          0.772730827331543,
          -31.463253021240234
        ],
        [
          -0.42128732800483704,
          1.4536644220352173,
          -5.364591121673584,
          -5.233101844787598,
          0.10026770830154419,
          -0.06258372962474823,
          -7.3552656173706055,
          -0.27020424604415894,
          -5.263943672180176,
          0.5793747901916504,
          -0.28631171584129333
        ],
        [
          -0.1815134435892105,
          -0.3607136905193329,
          1.3766648769378662,
          2.098088502883911,
          0.029207676649093628,
          0.28602415323257446,
          1.1001207828521729,
          0.2521790862083435,
          -1.0088272094726562,
          0.5240254998207092,
          -1.7147767543792725
        ],
        [
          -0.033044543117284775,
          -0.029083404690027237,
          -0.37620413303375244,
          0.13990573585033417,
          -0.2816423773765564,
          -0.13896717131137848,
          -0.11320197582244873,
          -0.2948356866836548,
          0.04142342135310173,
          -0.4190252721309662,
          -0.021084817126393318
        ],
        [
          1.8335542678833008,
          0.5321662425994873,
          -0.4755377471446991,
          -1.022430419921875,
          0.16811642050743103,
          0.2159411907196045,
          -0.0751219093799591,
          -0.21727727353572845,
          0.504263699054718,
          0.5027061104774475,
          1.3483179807662964
        ],
        [
          0.104908786714077,
          -0.21448209881782532,
          0.17851540446281433,
          -0.23991654813289642,
          0.23259007930755615,
          0.28782522678375244,
          0.04511473327875137,
          -0.25817689299583435,
          0.0008141366997733712,
          0.4259456992149353,
          -27.143665313720703
        ],
        [
          0.5898734927177429,
          0.3835565447807312,
          1.2031038999557495,
          1.0193531513214111,
          -0.11066149175167084,
          -0.22366516292095184,
          1.2711119651794434,
          -0.06819887459278107,
          -0.463636189699173,
          0.5695517063140869,
          -1.9077802896499634
        ],
        [
          -0.02607506513595581,
          -0.24047456681728363,
          -0.08251488208770752,
          -0.24021071195602417,
          0.11333402991294861,
          0.0909045934677124,
          0.1027715802192688,
          -0.22897735238075256,
          -0.23972144722938538,
          -0.15865874290466309,
          -0.08946038782596588
        ],
        [
          0.5721307992935181,
          -18.324552536010742,
          -0.22800269722938538,
          -1.699133038520813,
          -0.09589824080467224,
          0.25653278827667236,
          -0.516319751739502,
          0.08768710494041443,
          0.9947858452796936,
          0.10629311949014664,
          1.3009041547775269
        ]
      ],
      "bias": [
        1.5366897583007812,
        -0.24500514566898346,
        0.5522955656051636,
        -0.5693147778511047,
        1.1135187149047852,
        0.1797419786453247,
        2.225043296813965,
        0.21038217842578888,
        1.1765483617782593,
        -0.01363798975944519,
        0.6696918606758118
      ]
    },
    {
      "type": "relu"
    },
    {
      "type": "linear",
      "weight": [
        [
          0.6085754632949829,
          0.17243757843971252,
          13.421792984008789,
          -9.04770278930664,
          1.4267739057540894,
          -0.11403240263462067,
          -0.6759582757949829,
          11.374494552612305,
          0.7828609943389893,
          -0.11833199858665466,
          3.9448320865631104
        ],
        [
          1.1199157238006592,
          0.09925401210784912,
          7.2012128829956055,
          -4.73447847366333,
          0.7382771968841553,
          0.15777331590652466,
          1.1992238759994507,
          5.232573986053467,
          1.182959794998169,
          -0.16638442873954773,
          2.15573787689209
        ]
      ],
      "bias": [
        -0.10515093803405762,
        2.3015692234039307
      ]
    }
  ],
  "feature_columns": [
    "demand",
    "total_wind_generation_capacity",
    "total_generation_capacity",
    "residual_demand",
    "next_generation_capacity",
    "next_demand",
    "own_generation_capacity",
    "next_own_generation_capacity"
  ],
  "target_columns": [
    "target_bid_G1_B1",
    "target_bid_G1_B2"
  ]
}