{
  "generator_name": "G1",
  "activation": "relu",
  "layers": [
    {
      "type": "linear",
      "weight": [
        [
          -0.7670353055000305,
          0.8459251523017883,
          0.9828709959983826,
          0.1583029180765152,
          -0.3416283428668976,
          0.45471781492233276,
          0.27047649025917053,
          -0.005607903003692627
        ],
        [
          -0.0854993462562561,
          -0.32929667830467224,
          0.1970686912536621,
          -0.18071801960468292,
          -0.2299995869398117,
          -0.22730425000190735,
          0.3038785755634308,
          0.2271263301372528
        ],
        [
          -1.7057278156280518,
          0.761289656162262,
          1.1543495655059814,
          -1.1822261810302734,
          0.5498554110527039,
          -0.20358821749687195,
          -0.02336740493774414,
          0.32477566599845886
        ],
        [
          -0.012313253246247768,
          -0.0022219268139451742,
          0.030074559152126312,
          1.4418269395828247,
          0.5249111652374268,
          -0.42259714007377625,
          0.03853887319564819,
          0.05470651388168335
        ],
        [
          -0.4091621935367584,
          0.025809235870838165,
          -0.011392767541110516,
          0.9700188040733337,
          0.47224879264831543,
          0.09506361186504364,
          0.22771552205085754,
          -0.2435547411441803
        ],
        [
          -2.5542242527008057,
          2.265488862991333,
          2.3826026916503906,
          -0.7752229571342468,
          -1.473206639289856,
          0.18816567957401276,
          0.3511536419391632,
          0.08026179671287537
        ],
        [
          -1.4368553161621094,
          1.412739872932434,
          1.139431357383728,
          -0.0385562963783741,
          -1.1221928596496582,
          0.24185602366924286,
          0.2472318708896637,
          0.18914750218391418
        ]
      ],
      "bias": [
        0.8810670971870422,
        0.19721199572086334,
        0.27858036756515503,
        1.2982369661331177,
        1.2576346397399902,
        1.7243200540542603,
        1.4018319845199585
      ]
    },
    {
      "type": "relu"
    },
    {
      "type": "linear",
      "weight": [
        [
          -0.427443265914917,
          -0.3409721851348877,
          -1.6352945566177368,
          0.7000001072883606,
          0.6122399568557739,
          -1.8673629760742188,
          -0.8327731490135193
        ],
        [
          -0.22703836858272552,
          -0.003152847057208419,
          -0.07421396672725677,
          0.15400847792625427,
          -0.12238060683012009,
          0.18553964793682098,
          -0.2896480858325958
        ],
        [
          1.067209243774414,
          -0.11252234876155853,
          -1.814908742904663,
          -0.1645430028438568,
          0.43812859058380127,
          2.082125663757324,
          1.097280502319336
        ],
        [
          0.2525356709957123,
          -0.03664242476224899,
          2.4481356143951416,
          -0.8576195240020752,
          -0.5735856890678406,
          1.7978483438491821,
          0.7971687316894531
        ],
        [
          0.6821240186691284,
          -0.22591610252857208,
          -1.3819639682769775,
          0.6084701418876648,
          0.2823096811771393,
          2.125558853149414,
          1.2204501628875732
        ],
        [
          0.8205283880233765,
          -0.21734808385372162,
          -1.1581618785858154,
          1.0770620107650757,
          1.451675534248352,
          0.9592527747154236,
          1.178109884262085
        ],
        [
          -0.2326868623495102,
          0.2367839217185974,
          -0.05987919494509697,
          -0.1671566516160965,
          -0.16331341862678528,
          0.2812509834766388,
          -0.45569562911987305
        ]
      ],
      "bias": [
        0.2772713899612427,
        -0.04460674524307251,
        0.7900917530059814,
        0.2789991796016693,
        0.9674100279808044,
        1.5970255136489868,
        0.19963598251342773
      ]
    },
    {
      "type": "relu"
    },
    {
      "type": "linear",
      "weight": [
        [
          -1.4525070190429688,
          0.02629104256629944,
          1.7770346403121948,
          -3.830899715423584,
          1.4965200424194336,
          0.6404944658279419,
          -0.24524977803230286
        ],
        [
          -0.3339046239852905,
          0.022104058414697647,
          0.46784478425979614,
          -1.9496990442276,
          0.7681586146354675,
          1.6497089862823486,
          -0.23272277414798737
        ]
      ],
      "bias": [
        -0.6839168667793274,
        2.472740411758423
      ]
    }
  ],
  "feature_columns": [
    "demand",
    "total_wind_generation_capacity",
    "total_generation_capacity",
    "residual_demand",
    "next_generation_capacity",
    "next_demand",
    "own_generation_capacity",
    "next_own_generation_capacity"
  ],
  "target_columns": [
    "target_bid_G1_B1",
    "target_bid_G1_B2"
  ]
}