{
  "generator_name": "G1",
  "activation": "relu",
  "layers": [
    {
      "type": "linear",
      "weight": [
        [
          -1.2178422212600708,
          0.7438545227050781,
          0.7933996915817261,
          1.86270272731781,
          0.061628472059965134,
          -0.021471397951245308,
          0.07488057017326355,
          -0.0018154303543269634,
          -0.17525571584701538,
          0.2637901306152344,
          0.01286381483078003
        ],
        [
          2.2311325073242188,
          -2.2055118083953857,
          -2.152981996536255,
          2.3817696571350098,
          0.020790819078683853,
          0.5311323404312134,
          -0.032822709530591965,
          0.5328910946846008,
          -0.03202357888221741,
          0.11496448516845703,
          -0.041524291038513184
        ],
        [
          2.459669828414917,
          -2.7004854679107666,
          -2.2043638229370117,
          2.818843126296997,
          0.01720293052494526,
          0.6280121207237244,
          -0.04359651356935501,
          0.6291282176971436,
          -0.02621564269065857,
          0.04035806655883789,
          0.19162729382514954
        ],
        [
          -0.14623714983463287,
          0.17057585716247559,
          -0.225529745221138,
          -0.26195040345191956,
          0.26670676469802856,
          -0.24980023503303528,
          -0.26551902294158936,
          -0.042239997535943985,
          0.2473568320274353,
          0.24067485332489014,
          -0.23325449228286743
        ],
        [
          0.1910092532634735,
          0.32726237177848816,
          0.5519433617591858,
          1.2907130718231201,
          0.12219829112291336,
          -0.5423652529716492,
          0.15300437808036804,
          -0.5105835795402527,
          0.2843064069747925,
          -0.16651098430156708,
          0.1740342080593109
        ]
      ],
      "bias": [
        2.3229362964630127,
        0.06832847744226456,
        0.24093440175056458,
        0.005208085756748915,
        1.0788592100143433
      ]
    },
    {
      "type": "relu"
    },
    {
      "type": "linear",
      "weight": [
        [
          1.0850937366485596,
          5.553788661956787,
          -4.858208179473877,
          0.13877719640731812,
          -0.08662912249565125
        ],
        [
          -0.4211258888244629,
          0.3358183205127716,
          0.32084766030311584,
          0.10341287404298782,
          -0.443777859210968
        ],
        [
          1.1450058221817017,
          -5.836587905883789,
          5.13721227645874,
          -0.20905214548110962,
          0.7684882879257202
        ],
        [
          1.101401925086975,
          -5.619369983673096,
          4.833486080169678,
          0.061021484434604645,
          0.5182453393936157
        ],
        [
          -0.2022174745798111,
          0.4105827808380127,
          -0.34235167503356934,
          0.4060211777687073,
          -0.06077730655670166
        ]
      ],
      "bias": [
        -0.819128692150116,
        -0.08099523931741714,
        1.5935566425323486,
        1.212794542312622,
        -0.2390352338552475
      ]
    },
    {
      "type": "relu"
    },
    {
      "type": "linear",
      "weight": [
        [
          -11.046582221984863,
          -0.2107846587896347,
          2.9349513053894043,
          3.5015621185302734,
          -0.08036908507347107
        ],
        [
          -4.305134296417236,
          0.013536161743104458,
          2.1867318153381348,
          2.2841739654541016,
          0.3519246578216553
        ]
      ],
      "bias": [
        -0.4021228551864624,
        2.03302001953125
      ]
    }
  ],
  "feature_columns": [
    "demand",
    "total_wind_generation_capacity",
    "total_generation_capacity",
    "residual_demand",
    "previous_generation_capacity",
    "previous_demand",
    "next_generation_capacity",
    "next_demand",
    "own_generation_capacity",
    "previous_own_generation_capacity",
    "next_own_generation_capacity"
  ],
  "target_columns": [
    "target_bid_G1_B1",
    "target_bid_G1_B2"
  ]
}