{
  "generator_name": "G2",
  "activation": "relu",
  "layers": [
    {
      "type": "linear",
      "weight": [
        [
          -0.5922955870628357,
          0.5291048288345337,
          0.10301224887371063,
          1.241713285446167,
          0.31260523200035095,
          0.44341155886650085,
          -0.23329979181289673,
          -0.2376045435667038
        ],
        [
          -0.7903383374214172,
          0.5485012531280518,
          0.5088416337966919,
          1.1229665279388428,
          -0.020332826301455498,
          -0.17409680783748627,
          0.24279478192329407,
          0.06040233373641968
        ],
        [
          -0.7028752565383911,
          0.6212714314460754,
          0.6489514708518982,
          1.232409119606018,
          -0.13136506080627441,
          -0.2483442723751068,
          0.28570082783699036,
          -0.09480878710746765
        ],
        [
          -1.0120781660079956,
          0.1465715616941452,
          0.571464478969574,
          1.1070165634155273,
          0.214023619890213,
          -0.1277576982975006,
          0.09600049257278442,
          0.2045573890209198
        ],
        [
          -0.32322433590888977,
          -0.011232323944568634,
          0.22299061715602875,
          -0.38983458280563354,
          0.01790950447320938,
          -0.4065737724304199,
          0.03944602608680725,
          0.082146555185318
        ],
        [
          0.14868250489234924,
          -0.08854690194129944,
          0.03096097707748413,
          -0.07672280073165894,
          -0.22701291739940643,
          0.1718149483203888,
          -0.04315745830535889,
          0.3055576980113983
        ],
        [
          -0.12068842351436615,
          -0.04349631071090698,
          -0.2889801263809204,
          -0.3150828778743744,
          -0.12178121507167816,
          -0.345030814409256,
          0.353280633687973,
          -0.30505818128585815
        ],
        [
          -1.232863426208496,
          0.1492614597082138,
          0.6649654507637024,
          1.0807034969329834,
          -0.40059995651245117,
          -0.11982771009206772,
          -0.07031452655792236,
          -0.25401175022125244
        ],
        [
          -0.11576470732688904,
          -0.040902405977249146,
          -0.21703223884105682,
          0.22384986281394958,
          -0.21120215952396393,
          -0.31566062569618225,
          0.1341312825679779,
          0.3366144597530365
        ],
        [
          -0.4247826039791107,
          0.7401605248451233,
          0.5087575316429138,
          0.9038881659507751,
          0.18144749104976654,
          0.3979411721229553,
          0.0708705484867096,
          0.2275277078151703
        ],
        [
          0.1522253453731537,
          -0.16677895188331604,
          0.084209144115448,
          -0.1042870581150055,
          0.2634483277797699,
          -0.0622805655002594,
          0.05252036452293396,
          0.02365383505821228
        ]
      ],
      "bias": [
        1.4177935123443604,
        1.5702998638153076,
        1.594972014427185,
        1.5835833549499512,
        -0.13034862279891968,
        -0.16876305639743805,
        0.29477158188819885,
        1.8295650482177734,
        -0.1372084766626358,
        1.864937663078308,
        -0.33510756492614746
      ]
    },
    {
      "type": "relu"
    },
    {
      "type": "linear",
      "weight": [
        [
          0.1931951940059662,
          -0.2646550238132477,
          0.18158091604709625,
          0.10390949249267578,
          -0.11135822534561157,
          0.020123809576034546,
          -0.0676283985376358,
          0.04592624306678772,
          0.15506041049957275,
          -0.23283930122852325,
          0.2919272184371948
        ],
        [
          0.04659958928823471,
          -0.2250942885875702,
          0.07222001999616623,
          -0.29286107420921326,
          -0.1128809005022049,
          -0.1479334980249405,
          -0.1775309443473816,
          -0.3031550943851471,
          0.2197192907333374,
          0.030245713889598846,
          0.16810718178749084
        ],
        [
          0.18580837547779083,
          0.2225794941186905,
          0.09467550367116928,
          -0.2157088667154312,
          -0.05473601818084717,
          0.0005496442317962646,
          -0.036534279584884644,
          0.06919320672750473,
          0.2860075831413269,
          -0.28687143325805664,
          -0.0012483000755310059
        ],
        [
          0.03171691298484802,
          -0.294039249420166,
          0.06526583433151245,
          -0.18337738513946533,
          -0.02136141061782837,
          0.0051968395709991455,
          -0.21486496925354004,
          -0.17864680290222168,
          0.16529390215873718,
          -0.034444570541381836,
          -0.02664896845817566
        ],
        [
          0.1875607818365097,
          -0.13940399885177612,
          -0.3139994144439697,
          -0.0499860942363739,
          -0.255445271730423,
          -0.14785346388816833,
          0.29962146282196045,
          -0.2213839739561081,
          -0.2848617136478424,
          0.036765336990356445,
          0.10839423537254333
        ],
        [
          -0.2576669752597809,
          -0.17624109983444214,
          0.09544768929481506,
          -0.07448629289865494,
          0.07501158118247986,
          0.15750956535339355,
          0.05942925810813904,
          0.11663631349802017,
          -0.1395561695098877,
          0.19865456223487854,
          0.28324103355407715
        ],
        [
          0.16121473908424377,
          -0.23266911506652832,
          -0.2571825087070465,
          0.18208590149879456,
          0.06065237522125244,
          0.1773262619972229,
          0.17547160387039185,
          0.0562092661857605,
          0.004108995199203491,
          -0.08232341706752777,
          0.2248287796974182
        ],
        [
          0.034960534423589706,
          -0.01642516814172268,
          0.23706592619419098,
          -0.09754222631454468,
          -0.22422099113464355,
          -0.11184544861316681,
          -0.1663227081298828,
          0.07811761647462845,
          -0.209157794713974,
          -0.23020532727241516,
          -0.09925071895122528
        ],
        [
          0.16977351903915405,
          -0.2900698781013489,
          -0.02958008646965027,
          0.1762034296989441,
          0.1590840220451355,
          0.13732612133026123,
          -0.2529836893081665,
          -0.21626710891723633,
          -0.2670455873012543,
          -0.22510309517383575,
          -0.0959365963935852
        ],
        [
          0.6317177414894104,
          1.0111924409866333,
          1.1368849277496338,
          1.0589722394943237,
          0.11372683197259903,
          -0.17946529388427734,
          -0.10644617676734924,
          1.3118646144866943,
          0.20275098085403442,
          0.7048012614250183,
          -0.14125846326351166
        ],
        [
          1.1286978721618652,
          1.0697402954101562,
          0.979029655456543,
          1.2551720142364502,
          -0.17282766103744507,
          -0.1937132477760315,
          0.03343731164932251,
          1.332918405532837,
          -0.22016777098178864,
          1.0615752935409546,
          -0.15269896388053894
        ]
      ],
      "bias": [
        -0.07101810723543167,
        0.0955810621380806,
        -0.31837794184684753,
        -0.19909894466400146,
        -0.023753343150019646,
        -0.031443312764167786,
        -0.1705796867609024,
        -0.01938372664153576,
        -0.18371550738811493,
        1.1484473943710327,
        1.2408452033996582
      ]
    },
    {
      "type": "relu"
    },
    {
      "type": "linear",
      "weight": [
        [
          -0.15923717617988586,
          -0.10945538431406021,
          -0.08592367172241211,
          0.1584784984588623,
          0.06811481714248657,
          0.17416822910308838,
          -0.27726247906684875,
          0.019259918481111526,
          0.14954105019569397,
          0.825361430644989,
          0.9174591302871704
        ],
        [
          -0.05040229484438896,
          -0.11596369743347168,
          -0.20853236317634583,
          -0.1975836306810379,
          -0.08497209846973419,
          -0.18014925718307495,
          -0.021285802125930786,
          -0.20844429731369019,
          -0.11955636739730835,
          1.123272180557251,
          1.225992202758789
        ]
      ],
      "bias": [
        0.7413368821144104,
        0.5895776152610779
      ]
    }
  ],
  "feature_columns": [
    "demand",
    "total_wind_generation_capacity",
    "total_generation_capacity",
    "residual_demand",
    "next_generation_capacity",
    "next_demand",
    "own_generation_capacity",
    "next_own_generation_capacity"
  ],
  "target_columns": [
    "target_bid_G2_B1",
    "target_bid_G2_B2"
  ]
}