{
  "generator_name": "G2",
  "activation": "relu",
  "layers": [
    {
      "type": "linear",
      "weight": [
        [
          -0.1662660539150238,
          0.6430872082710266,
          0.4556002914905548,
          0.8215126395225525,
          0.12003457546234131,
          0.044607974588871,
          0.2261318862438202,
          -0.2050439566373825
        ],
        [
          -0.02670525200664997,
          0.3248036205768585,
          0.7707486152648926,
          0.5645277500152588,
          0.37822285294532776,
          0.01604132540524006,
          0.3146232068538666,
          -0.030743271112442017
        ],
        [
          -0.2758113145828247,
          -0.061607569456100464,
          -0.275443971157074,
          -0.341827929019928,
          -0.326047420501709,
          -0.2970370352268219,
          -0.1698177009820938,
          -0.05949431657791138
        ],
        [
          -0.33815470337867737,
          0.043831706047058105,
          0.10549473762512207,
          -0.20707842707633972,
          0.02962648868560791,
          -0.17757727205753326,
          0.160476952791214,
          0.07071879506111145
        ],
        [
          -0.5786774158477783,
          0.3158184587955475,
          0.5939197540283203,
          1.126745343208313,
          -0.16883395612239838,
          0.10026205331087112,
          0.24101445078849792,
          0.0009963512420654297
        ],
        [
          -1.3320571184158325,
          0.07382076233625412,
          0.24309073388576508,
          0.6672470569610596,
          -0.51624995470047,
          -0.3275997042655945,
          -0.33839792013168335,
          0.17685112357139587
        ],
        [
          -0.7141841650009155,
          0.2840474545955658,
          0.09803661704063416,
          0.8926529884338379,
          0.2781319320201874,
          0.27755603194236755,
          0.3248361647129059,
          -0.1657913327217102
        ],
        [
          -0.33578869700431824,
          0.18870113790035248,
          0.6249650120735168,
          0.9841669201850891,
          -0.18624946475028992,
          0.0031821145676076412,
          0.1532401144504547,
          0.22642555832862854
        ],
        [
          -0.48099780082702637,
          0.3264581263065338,
          0.6314474940299988,
          0.9017022848129272,
          0.2826775014400482,
          0.25894564390182495,
          -0.0928773283958435,
          -0.3227362334728241
        ],
        [
          -0.22491151094436646,
          0.09970402717590332,
          0.06502507627010345,
          0.7213069796562195,
          0.0809025838971138,
          -0.24541538953781128,
          0.23456087708473206,
          -0.03478744626045227
        ],
        [
          0.16511204838752747,
          0.1300027072429657,
          -0.10496874153614044,
          0.026762276887893677,
          -0.11739039421081543,
          -0.316343754529953,
          -0.34928327798843384,
          0.0950104296207428
        ]
      ],
      "bias": [
        1.172551155090332,
        1.1084738969802856,
        -0.296148419380188,
        -0.351195365190506,
        1.2831192016601562,
        1.5409271717071533,
        1.363779902458191,
        1.1892441511154175,
        1.260172963142395,
        1.1803653240203857,
        -0.20215310156345367
      ]
    },
    {
      "type": "relu"
    },
    {
      "type": "linear",
      "weight": [
        [
          0.9439677000045776,
          0.6353803873062134,
          -0.1818055659532547,
          -0.07580670714378357,
          1.0590535402297974,
          0.9618276953697205,
          0.8106350302696228,
          1.0651414394378662,
          0.9325820803642273,
          0.7370284795761108,
          0.05664777755737305
        ],
        [
          0.7327530384063721,
          0.7051514387130737,
          -0.17763611674308777,
          -0.07409417629241943,
          0.7569625377655029,
          1.107858657836914,
          0.9262603521347046,
          0.48526066541671753,
          0.9352603554725647,
          0.9473124742507935,
          -0.22570830583572388
        ],
        [
          0.70676189661026,
          0.7683582901954651,
          -0.05105483531951904,
          0.19967031478881836,
          0.9356146454811096,
          1.2709629535675049,
          0.5510439872741699,
          0.8244225382804871,
          0.7148992419242859,
          0.7721977829933167,
          -0.02460971474647522
        ],
        [
          -0.07365559041500092,
          -0.061950549483299255,
          -0.15442480146884918,
          -0.2506476044654846,
          -0.24551546573638916,
          0.03275585174560547,
          -0.26624587178230286,
          -0.1804371476173401,
          -0.1379355788230896,
          -0.16978156566619873,
          -0.26603439450263977
        ],
        [
          -0.29890263080596924,
          0.06866130977869034,
          -0.08818326890468597,
          -0.1324421614408493,
          -0.037291258573532104,
          0.2755213975906372,
          -0.09144607186317444,
          -0.24878793954849243,
          0.10729742050170898,
          -0.14566971361637115,
          -0.041343480348587036
        ],
        [
          0.020295696333050728,
          0.10990128666162491,
          -0.23062601685523987,
          -0.23921537399291992,
          -0.2384052872657776,
          0.2227165699005127,
          0.20491653680801392,
          -0.33745038509368896,
          0.007189072668552399,
          -0.12305045127868652,
          0.01853269338607788
        ],
        [
          0.1044023409485817,
          -0.11741688847541809,
          -0.04067990183830261,
          -0.025052160024642944,
          -0.06554930657148361,
          -0.29891061782836914,
          -0.22691252827644348,
          0.20932607352733612,
          0.11590316146612167,
          0.02227184921503067,
          0.016267985105514526
        ],
        [
          -0.13604149222373962,
          0.2579686641693115,
          0.0710001289844513,
          -0.2529994547367096,
          -0.17765355110168457,
          -0.07154656946659088,
          0.026026606559753418,
          0.07363659143447876,
          -0.22490623593330383,
          -0.18649350106716156,
          -0.03423720598220825
        ],
        [
          -0.1206585019826889,
          -0.21300143003463745,
          0.18953725695610046,
          0.09667769074440002,
          -0.14875513315200806,
          -0.2198105752468109,
          -0.2705526649951935,
          -0.25470155477523804,
          0.10384299606084824,
          -0.0937798023223877,
          -0.1445220559835434
        ],
        [
          -0.23543760180473328,
          0.21093136072158813,
          -0.11287258565425873,
          0.17390987277030945,
          0.07357140630483627,
          0.10412133485078812,
          0.23022358119487762,
          -0.13996033370494843,
          -0.2811654508113861,
          0.03146904334425926,
          -0.06988981366157532
        ],
        [
          -0.26815009117126465,
          -0.02782975137233734,
          0.145534485578537,
          -0.08185483515262604,
          -0.19428609311580658,
          -0.13918659090995789,
          -0.08779209107160568,
          0.1505594700574875,
          -0.07701615989208221,
          0.16710293292999268,
          0.23963892459869385
        ]
      ],
      "bias": [
        1.0625368356704712,
        0.8255980610847473,
        0.9685524106025696,
        -0.21443843841552734,
        0.10317514091730118,
        -0.08485264331102371,
        -0.09772534668445587,
        -0.22196991741657257,
        0.2118450105190277,
        -0.06245006248354912,
        0.09814663976430893
      ]
    },
    {
      "type": "relu"
    },
    {
      "type": "linear",
      "weight": [
        [
          0.5990576148033142,
          0.7711432576179504,
          0.7474256753921509,
          -0.1762564778327942,
          0.01239645667374134,
          -0.23895683884620667,
          -0.210246279835701,
          0.19133499264717102,
          -0.1899949461221695,
          -0.21122470498085022,
          -0.20716021955013275
        ],
        [
          0.8310713768005371,
          0.9374339580535889,
          1.0667883157730103,
          -0.06436847150325775,
          -0.1495208889245987,
          -0.22941982746124268,
          -0.20142661035060883,
          0.24988007545471191,
          -0.08382974565029144,
          0.1845647245645523,
          -0.1551673412322998
        ]
      ],
      "bias": [
        0.30022358894348145,
        0.1939602643251419
      ]
    }
  ],
  "feature_columns": [
    "demand",
    "total_wind_generation_capacity",
    "total_generation_capacity",
    "residual_demand",
    "next_generation_capacity",
    "next_demand",
    "own_generation_capacity",
    "next_own_generation_capacity"
  ],
  "target_columns": [
    "target_bid_G2_B1",
    "target_bid_G2_B2"
  ]
}