{
  "generator_name": "G2",
  "activation": "relu",
  "layers": [
    {
      "type": "linear",
      "weight": [
        [
          -1.2117722034454346,
          0.9450636506080627,
          0.8355208039283752,
          1.3699942827224731,
          -0.0993516594171524,
          0.28512561321258545,
          0.2076481133699417,
          0.2601945996284485,
          0.28868091106414795,
          0.02242499589920044,
          0.1684090495109558
        ],
        [
          -0.010712146759033203,
          -0.19287912547588348,
          0.17639517784118652,
          -0.026652932167053223,
          -0.1398184448480606,
          0.06350910663604736,
          0.09324204921722412,
          -0.17672115564346313,
          -0.007898151874542236,
          -0.29042699933052063,
          -0.07824255526065826
        ],
        [
          -0.853359043598175,
          0.9331492781639099,
          0.6686856150627136,
          1.8087577819824219,
          0.1456531584262848,
          0.1171865165233612,
          0.19772347807884216,
          0.12217468023300171,
          0.203194260597229,
          -0.15492402017116547,
          0.09830501675605774
        ],
        [
          -0.053862571716308594,
          0.09071275591850281,
          0.26159894466400146,
          -0.24853840470314026,
          -0.1282326728105545,
          -0.07442846894264221,
          -0.1400286853313446,
          0.00542876124382019,
          -0.20031580328941345,
          -0.2331426441669464,
          -0.20116911828517914
        ],
        [
          -0.03126055747270584,
          0.09308333694934845,
          -0.22262455523014069,
          -0.3227039575576782,
          -0.1518917977809906,
          0.060633447021245956,
          0.06752143055200577,
          0.0784623771905899,
          -0.09379744529724121,
          0.06225600838661194,
          -0.031055033206939697
        ],
        [
          -1.0427581071853638,
          0.701300859451294,
          0.7285833358764648,
          1.970047116279602,
          0.04329056665301323,
          -0.10205883532762527,
          0.13135269284248352,
          -0.016223223879933357,
          0.26144683361053467,
          0.22781771421432495,
          0.10652655363082886
        ],
        [
          -1.314719796180725,
          0.6809685230255127,
          0.9627082943916321,
          1.9738543033599854,
          0.24493040144443512,
          0.179623544216156,
          -0.33768129348754883,
          -0.06794018298387527,
          0.20295614004135132,
          0.2612716555595398,
          -0.21852180361747742
        ],
        [
          -0.023550748825073242,
          -0.2672792375087738,
          0.026150822639465332,
          -0.23295623064041138,
          0.015145182609558105,
          0.14349186420440674,
          0.20985907316207886,
          0.16446229815483093,
          -0.12536391615867615,
          0.013393640518188477,
          -0.2887038290500641
        ],
        [
          -0.24473854899406433,
          -0.3282947838306427,
          -0.14385762810707092,
          0.12876072525978088,
          -0.04624543711543083,
          -0.16953517496585846,
          -0.3464229702949524,
          -0.3915826082229614,
          -0.27222391963005066,
          -0.13774846494197845,
          0.17424598336219788
        ],
        [
          -1.1968462467193604,
          0.5555718541145325,
          0.8810674548149109,
          1.8212988376617432,
          -0.1384647637605667,
          -0.1322200894355774,
          -0.08501377701759338,
          0.14665928483009338,
          0.21513628959655762,
          -0.1610027551651001,
          -0.0324174165725708
        ],
        [
          -1.3225234746932983,
          0.5914707183837891,
          0.9013974666595459,
          1.7698967456817627,
          -0.1378832906484604,
          -0.29009395837783813,
          -0.0938187763094902,
          -0.38628366589546204,
          0.15840083360671997,
          -0.23059788346290588,
          0.2646546959877014
        ]
      ],
      "bias": [
        1.8693320751190186,
        -0.3011190891265869,
        1.938198208808899,
        -0.24733029305934906,
        0.13626538217067719,
        2.1709935665130615,
        2.706925630569458,
        -0.27021804451942444,
        0.0618160180747509,
        2.6942617893218994,
        2.685662269592285
      ]
    },
    {
      "type": "relu"
    },
    {
      "type": "linear",
      "weight": [
        [
          1.3579890727996826,
          -0.08496662974357605,
          1.0193439722061157,
          0.0560128390789032,
          -0.06433168798685074,
          1.35830819606781,
          1.2349557876586914,
          -0.27213236689567566,
          -0.042077917605638504,
          1.253770351409912,
          1.433888554573059
        ],
        [
          1.741524577140808,
          0.28484535217285156,
          1.5710272789001465,
          0.13776487112045288,
          -0.0722644180059433,
          1.5782132148742676,
          1.610991358757019,
          -0.21306195855140686,
          -0.08817131817340851,
          1.7756694555282593,
          1.9990333318710327
        ]
      ],
      "bias": [
        1.1631325483322144,
        1.2763514518737793
      ]
    }
  ],
  "feature_columns": [
    "demand",
    "total_wind_generation_capacity",
    "total_generation_capacity",
    "residual_demand",
    "previous_generation_capacity",
    "previous_demand",
    "next_generation_capacity",
    "next_demand",
    "own_generation_capacity",
    "previous_own_generation_capacity",
    "next_own_generation_capacity"
  ],
  "target_columns": [
    "target_bid_G2_B1",
    "target_bid_G2_B2"
  ]
}