{
  "generator_name": "G2",
  "activation": "relu",
  "layers": [
    {
      "type": "linear",
      "weight": [
        [
          -0.21228677034378052,
          -0.1323494017124176,
          0.14237824082374573,
          0.11817392706871033,
          -0.07385827600955963,
          0.07224628329277039,
          -0.14845572412014008,
          -0.20811867713928223,
          0.09154462814331055,
          -0.2000681757926941,
          -0.16524647176265717
        ],
        [
          -0.00044423341751098633,
          -0.07245337963104248,
          0.05760583281517029,
          -0.25944721698760986,
          -0.2646655738353729,
          -0.08111052215099335,
          -0.17228035628795624,
          -0.24926617741584778,
          0.2592260241508484,
          0.06680625677108765,
          0.12492752075195312
        ],
        [
          0.28304511308670044,
          -0.281648188829422,
          -0.017185449600219727,
          -0.1261359006166458,
          0.167813241481781,
          -0.1260712742805481,
          -0.014013618230819702,
          0.06493675708770752,
          -0.1236991137266159,
          -0.21526065468788147,
          0.13840791583061218
        ],
        [
          -1.4020425081253052,
          0.9638051986694336,
          0.916730523109436,
          2.142200231552124,
          -0.0001598642411408946,
          -0.0012761978432536125,
          -9.250805305782706e-05,
          -0.0012802627170458436,
          0.1382961869239807,
          0.2958492636680603,
          0.25268107652664185
        ],
        [
          -0.081034354865551,
          0.13983824849128723,
          -0.03899725526571274,
          0.08059246093034744,
          0.04973137006163597,
          0.11118455231189728,
          -0.19532087445259094,
          0.21523505449295044,
          0.010662943124771118,
          0.23583263158798218,
          0.13182228803634644
        ]
      ],
      "bias": [
        -0.22671377658843994,
        0.22256219387054443,
        -0.1863461434841156,
        3.254793643951416,
        -0.3084389865398407
      ]
    },
    {
      "type": "relu"
    },
    {
      "type": "linear",
      "weight": [
        [
          0.127297043800354,
          0.0685873031616211,
          0.03579983115196228,
          -0.4197898805141449,
          0.02885870262980461
        ],
        [
          0.43059438467025757,
          -0.3502510190010071,
          0.386228084564209,
          -0.20638494193553925,
          -0.03142887353897095
        ],
        [
          -0.19203823804855347,
          0.41944414377212524,
          0.13483357429504395,
          1.381548285484314,
          -0.40621480345726013
        ],
        [
          0.12331104278564453,
          -0.21229596436023712,
          -0.28123337030410767,
          -0.0066642165184021,
          -0.06845620274543762
        ],
        [
          0.05218547582626343,
          0.14483439922332764,
          -0.11672154068946838,
          1.61016845703125,
          -0.31316548585891724
        ]
      ],
      "bias": [
        0.2994195818901062,
        -0.3709479868412018,
        2.1136679649353027,
        -0.04279276728630066,
        2.04032564163208
      ]
    },
    {
      "type": "relu"
    },
    {
      "type": "linear",
      "weight": [
        [
          -0.11645811051130295,
          0.2740303874015808,
          1.9292949438095093,
          -0.19829164445400238,
          1.125448226928711
        ],
        [
          -0.148985356092453,
          -0.032979816198349,
          2.06388783454895,
          -0.21802209317684174,
          1.997489094734192
        ]
      ],
      "bias": [
        1.456231951713562,
        1.519601583480835
      ]
    }
  ],
  "feature_columns": [
    "demand",
    "total_wind_generation_capacity",
    "total_generation_capacity",
    "residual_demand",
    "previous_generation_capacity",
    "previous_demand",
    "next_generation_capacity",
    "next_demand",
    "own_generation_capacity",
    "previous_own_generation_capacity",
    "next_own_generation_capacity"
  ],
  "target_columns": [
    "target_bid_G2_B1",
    "target_bid_G2_B2"
  ]
}