{
  "generator_name": "G2",
  "activation": "relu",
  "layers": [
    {
      "type": "linear",
      "weight": [
        [
          -0.26260390877723694,
          0.2674335539340973,
          -0.232823446393013,
          0.14899662137031555,
          -0.20055454969406128,
          0.06999403238296509,
          0.20923534035682678,
          -0.12572577595710754
        ],
        [
          0.26395437121391296,
          -0.056889235973358154,
          0.054738521575927734,
          0.023078441619873047,
          -0.06069222092628479,
          -0.20570625364780426,
          -0.1958182156085968,
          0.29490289092063904
        ],
        [
          -0.8784364461898804,
          0.48092642426490784,
          0.5790500640869141,
          1.4084513187408447,
          -0.15674126148223877,
          0.11033813655376434,
          -0.26843899488449097,
          0.234584778547287
        ],
        [
          -0.31354403495788574,
          -0.07040402293205261,
          -0.12405917793512344,
          -0.19800865650177002,
          0.06447235494852066,
          0.09499338269233704,
          0.15524128079414368,
          0.2573533356189728
        ],
        [
          -0.6829503178596497,
          0.6878648400306702,
          0.3508245348930359,
          0.9679441452026367,
          0.16817429661750793,
          -0.11838656663894653,
          0.018555402755737305,
          -0.1246577799320221
        ],
        [
          0.24842508137226105,
          -0.31035444140434265,
          -0.20940209925174713,
          -0.0844631940126419,
          -0.2947012782096863,
          0.018866270780563354,
          0.1687643826007843,
          -0.3361158072948456
        ],
        [
          -0.27307188510894775,
          -0.0466824471950531,
          -0.31122544407844543,
          0.2025950849056244,
          0.1893472969532013,
          -0.00732848048210144,
          0.2840094268321991,
          -0.11812973022460938
        ]
      ],
      "bias": [
        -0.21807074546813965,
        -0.2736404240131378,
        1.5499898195266724,
        0.11236592382192612,
        1.5578199625015259,
        0.03814155235886574,
        -0.2523132562637329
      ]
    },
    {
      "type": "relu"
    },
    {
      "type": "linear",
      "weight": [
        [
          -0.021092653274536133,
          0.2944338023662567,
          1.38999605178833,
          0.08387411385774612,
          1.2602049112319946,
          -0.16304564476013184,
          -0.08232942223548889
        ],
        [
          0.3407299816608429,
          0.06010282039642334,
          1.0393290519714355,
          -0.026807228103280067,
          0.9059040546417236,
          0.3831470012664795,
          -0.19492581486701965
        ],
        [
          -0.026248455047607422,
          0.22738751769065857,
          0.7966015338897705,
          -0.12155406922101974,
          0.7586306929588318,
          -0.24948792159557343,
          -0.2407686710357666
        ],
        [
          -0.012317925691604614,
          -0.327171266078949,
          1.1534756422042847,
          -0.006144113838672638,
          1.2974258661270142,
          -0.051084212958812714,
          0.27969077229499817
        ],
        [
          -0.12016209959983826,
          -0.10385546088218689,
          -0.337372362613678,
          0.2464388757944107,
          0.2718036472797394,
          -0.13349910080432892,
          -0.37750375270843506
        ],
        [
          0.306580513715744,
          0.07352524995803833,
          1.1730068922042847,
          0.18971090018749237,
          1.097887635231018,
          0.09331133216619492,
          0.07452020049095154
        ],
        [
          0.30340972542762756,
          -0.023093491792678833,
          -0.0846116915345192,
          0.24505798518657684,
          0.2740219235420227,
          -0.1605031043291092,
          -0.09697231650352478
        ]
      ],
      "bias": [
        1.2821158170700073,
        1.2468862533569336,
        1.265717625617981,
        1.0630590915679932,
        0.026054974645376205,
        0.9638523459434509,
        -0.4018038809299469
      ]
    },
    {
      "type": "relu"
    },
    {
      "type": "linear",
      "weight": [
        [
          0.5649979114532471,
          1.195764422416687,
          0.9322363138198853,
          0.5659523606300354,
          0.12316108494997025,
          1.2714744806289673,
          -0.17015574872493744
        ],
        [
          1.2334593534469604,
          0.9370452761650085,
          1.4127469062805176,
          1.362366795539856,
          -0.30705204606056213,
          1.0477440357208252,
          -0.6299472451210022
        ]
      ],
      "bias": [
        0.9115773439407349,
        0.52001953125
      ]
    }
  ],
  "feature_columns": [
    "demand",
    "total_wind_generation_capacity",
    "total_generation_capacity",
    "residual_demand",
    "next_generation_capacity",
    "next_demand",
    "own_generation_capacity",
    "next_own_generation_capacity"
  ],
  "target_columns": [
    "target_bid_G2_B1",
    "target_bid_G2_B2"
  ]
}