{
  "generator_name": "W1",
  "activation": "relu",
  "layers": [
    {
      "type": "linear",
      "weight": [
        [
          -0.003760045161470771,
          0.07419419288635254,
          0.5205876231193542,
          0.21589411795139313,
          0.1934247463941574,
          0.4763806164264679,
          0.2608271539211273,
          0.17604687809944153
        ],
        [
          -0.02408536523580551,
          0.5525512099266052,
          0.08300657570362091,
          0.5851492285728455,
          0.3898833394050598,
          -0.13492561876773834,
          0.012792998924851418,
          0.3968560993671417
        ],
        [
          -0.10869067162275314,
          0.033273160457611084,
          -0.39430758357048035,
          0.2527349889278412,
          -0.6543185114860535,
          0.11987471580505371,
          -0.4319418668746948,
          -0.06897100061178207
        ],
        [
          -0.21801093220710754,
          -0.0978945791721344,
          0.16712459921836853,
          0.23387739062309265,
          0.06045573949813843,
          0.13425573706626892,
          0.17545810341835022,
          -0.20774038136005402
        ],
        [
          -0.2827634811401367,
          0.2870643436908722,
          -0.3420548439025879,
          -0.116672083735466,
          -0.18783514201641083,
          -0.294094979763031,
          0.23277351260185242,
          0.21862921118736267
        ],
        [
          0.1527840793132782,
          0.06168511509895325,
          -0.15445256233215332,
          0.13484513759613037,
          -0.01432618498802185,
          -0.07094874978065491,
          -0.32874900102615356,
          -0.13686755299568176
        ],
        [
          0.09757436066865921,
          0.44034796953201294,
          -0.14024683833122253,
          0.29145678877830505,
          0.26655444502830505,
          0.332418829202652,
          0.2269226461648941,
          0.28858497738838196
        ],
        [
          0.11286139488220215,
          0.042128920555114746,
          0.5825396776199341,
          0.31329864263534546,
          0.15068820118904114,
          0.23292595148086548,
          0.3136070966720581,
          0.352742075920105
        ],
        [
          1.133683443069458,
          0.04883958026766777,
          0.44013160467147827,
          -0.2272205650806427,
          0.6538046598434448,
          0.6424301862716675,
          0.495194673538208,
          0.9440711140632629
        ],
        [
          0.4268707036972046,
          0.10586034506559372,
          0.31591087579727173,
          0.43964341282844543,
          0.28818410634994507,
          0.27751633524894714,
          0.1332738697528839,
          0.34888318181037903
        ],
        [
          -0.31406933069229126,
          -0.04314574971795082,
          -0.26281604170799255,
          0.04423690214753151,
          0.09352730959653854,
          0.33427274227142334,
          0.210774764418602,
          0.07330433279275894
        ]
      ],
      "bias": [
        0.6366633176803589,
        0.3951454758644104,
        -0.10303984582424164,
        -0.255768746137619,
        -0.2610374391078949,
        -0.14934314787387848,
        0.7198859453201294,
        0.4212622344493866,
        -0.30211564898490906,
        0.4628086984157562,
        -0.031339097768068314
      ]
    },
    {
      "type": "relu"
    },
    {
      "type": "linear",
      "weight": [
        [
          0.26221442222595215,
          -0.01750962808728218,
          0.4631499648094177,
          0.29889851808547974,
          0.26283639669418335,
          -0.19809061288833618,
          0.1320294588804245,
          0.4449905753135681,
          -0.2990168333053589,
          0.31494179368019104,
          0.26883935928344727
        ],
        [
          -0.2586917579174042,
          -0.13020886480808258,
          0.12584610283374786,
          0.015600204467773438,
          -0.14245061576366425,
          -0.264234721660614,
          0.03144434839487076,
          0.17089325189590454,
          -0.07046032696962357,
          -0.30548331141471863,
          0.1845303475856781
        ],
        [
          -0.18227240443229675,
          0.04371025413274765,
          -0.20950938761234283,
          0.03225499391555786,
          0.16635999083518982,
          0.09145548939704895,
          0.13439464569091797,
          0.17786210775375366,
          -0.0030861266423016787,
          -0.11276929080486298,
          0.1442740261554718
        ],
        [
          -0.18103474378585815,
          0.18831893801689148,
          0.2667810916900635,
          0.04087594151496887,
          0.015942901372909546,
          -0.0015669763088226318,
          -0.10090750455856323,
          -0.1996852159500122,
          -0.16720837354660034,
          -0.18922007083892822,
          -0.1844252347946167
        ],
        [
          0.5818372964859009,
          0.3321091830730438,
          0.17620794475078583,
          0.2053273320198059,
          -0.25017547607421875,
          -0.002952486276626587,
          0.3687911629676819,
          0.21691492199897766,
          -0.3105659484863281,
          0.1978638619184494,
          0.008954213932156563
        ],
        [
          0.15509645640850067,
          0.17714665830135345,
          0.07464125752449036,
          0.28337961435317993,
          0.05253627896308899,
          -0.13076068460941315,
          0.24244005978107452,
          0.4120625853538513,
          -0.6458691358566284,
          0.3815235197544098,
          -0.009388800710439682
        ],
        [
          0.15993589162826538,
          0.30840709805488586,
          0.6945105195045471,
          -0.07742510735988617,
          0.23021060228347778,
          -0.26503220200538635,
          0.33889132738113403,
          0.4554945230484009,
          -0.784121572971344,
          0.06175452843308449,
          0.1445600390434265
        ],
        [
          0.17715653777122498,
          0.4006362557411194,
          0.20390646159648895,
          -0.002337157726287842,
          -0.03452712297439575,
          0.12455740571022034,
          0.5110688805580139,
          0.38871172070503235,
          -0.6197757720947266,
          0.18748220801353455,
          -0.0816333144903183
        ],
        [
          0.5407071709632874,
          0.5548090934753418,
          -0.03066381812095642,
          -0.24351875483989716,
          0.1898368000984192,
          0.0174274742603302,
          0.12965798377990723,
          0.5638457536697388,
          -0.2940357029438019,
          0.41403359174728394,
          -0.2176656574010849
        ],
        [
          0.28349751234054565,
          -0.07418327033519745,
          0.03094051405787468,
          -0.29711320996284485,
          -0.0645708292722702,
          -0.07355545461177826,
          -0.00214768061414361,
          0.12181232124567032,
          0.9458210468292236,
          -0.22607697546482086,
          0.06445855647325516
        ],
        [
          0.07267436385154724,
          0.1768672913312912,
          -0.0200909823179245,
          -0.05267070233821869,
          -0.29936420917510986,
          -0.25643885135650635,
          -0.2582220137119293,
          -0.2307085394859314,
          0.07757914066314697,
          0.08375070244073868,
          0.06660816818475723
        ]
      ],
      "bias": [
        0.5078364610671997,
        0.1258477121591568,
        -0.135828897356987,
        -0.10384789109230042,
        0.4165128767490387,
        0.24990788102149963,
        0.289017915725708,
        0.40764686465263367,
        0.4143275320529938,
        -0.07231374084949493,
        -0.028448913246393204
      ]
    },
    {
      "type": "relu"
    },
    {
      "type": "linear",
      "weight": [
        [
          0.35804837942123413,
          -0.020513884723186493,
          -0.0386933833360672,
          0.18075412511825562,
          0.10745725780725479,
          0.4963570535182953,
          0.44099077582359314,
          0.5178276896476746,
          0.4709175229072571,
          -0.07177558541297913,
          0.08038464933633804
        ],
        [
          0.19497698545455933,
          -0.14838382601737976,
          -0.14663295447826385,
          -0.27019864320755005,
          0.6890690922737122,
          0.23715999722480774,
          0.3531462848186493,
          0.1649613082408905,
          0.5359171032905579,
          -0.3308633267879486,
          -0.0730360820889473
        ]
      ],
      "bias": [
        -0.057078681886196136,
        0.10033943504095078
      ]
    }
  ],
  "feature_columns": [
    "demand",
    "total_wind_generation_capacity",
    "total_generation_capacity",
    "residual_demand",
    "next_generation_capacity",
    "next_demand",
    "own_generation_capacity",
    "next_own_generation_capacity"
  ],
  "target_columns": [
    "target_bid_W1_B1",
    "target_bid_W1_B2"
  ]
}