{
  "generator_name": "W1",
  "activation": "relu",
  "layers": [
    {
      "type": "linear",
      "weight": [
        [
          0.07660630345344543,
          0.42263099551200867,
          0.17299631237983704,
          0.2787255346775055,
          0.08227646350860596,
          0.07381251454353333,
          0.2901172935962677,
          -0.08163971453905106
        ],
        [
          -0.13760368525981903,
          0.18980532884597778,
          0.5115078687667847,
          0.3112005591392517,
          -0.17557433247566223,
          0.06617395579814911,
          0.34612685441970825,
          0.03298954293131828
        ],
        [
          -0.40954625606536865,
          0.22259420156478882,
          -0.07182373851537704,
          0.31921541690826416,
          0.18863220512866974,
          -0.439428448677063,
          0.06174245476722717,
          -0.29932141304016113
        ],
        [
          -0.16737724840641022,
          -0.1890116035938263,
          0.43252354860305786,
          0.4855617582798004,
          0.020367629826068878,
          0.3619629144668579,
          0.35138610005378723,
          0.36062759160995483
        ],
        [
          -0.7213154435157776,
          0.22652828693389893,
          0.11797668039798737,
          0.5287155508995056,
          -0.2008998841047287,
          -0.2825241684913635,
          -0.5444940328598022,
          -0.13948316872119904
        ],
        [
          0.35996827483177185,
          0.42371079325675964,
          -0.013963587582111359,
          0.31614813208580017,
          0.14941878616809845,
          0.35204070806503296,
          0.36949479579925537,
          -0.12478718161582947
        ],
        [
          -0.34196245670318604,
          0.05072097107768059,
          -0.10824781656265259,
          -0.30044615268707275,
          -0.016644751653075218,
          0.006266159005463123,
          -0.3729704022407532,
          0.13033026456832886
        ],
        [
          0.35251304507255554,
          0.1648978292942047,
          0.010031461715698242,
          -0.3056197166442871,
          -0.2580777406692505,
          0.07613739371299744,
          -0.2255343198776245,
          -0.07961809635162354
        ],
        [
          -0.14016059041023254,
          -0.055656496435403824,
          -0.1294039785861969,
          -0.03933088853955269,
          -0.03738997504115105,
          0.44927453994750977,
          0.44859522581100464,
          0.15512527525424957
        ],
        [
          0.1928534209728241,
          0.29035648703575134,
          -0.19346903264522552,
          0.2435561865568161,
          0.41709792613983154,
          0.30511870980262756,
          0.08846654742956161,
          0.46184295415878296
        ],
        [
          -0.38080117106437683,
          0.10739284008741379,
          0.07732830196619034,
          0.30844879150390625,
          0.12432225793600082,
          -0.1292629837989807,
          0.2189769446849823,
          0.06384805589914322
        ]
      ],
      "bias": [
        0.47580739855766296,
        0.5703952312469482,
        0.5008468627929688,
        0.5394467711448669,
        1.0811166763305664,
        0.05679432675242424,
        0.17963722348213196,
        -0.24043263494968414,
        0.5623492002487183,
        0.3668964207172394,
        0.6054242849349976
      ]
    },
    {
      "type": "relu"
    },
    {
      "type": "linear",
      "weight": [
        [
          -0.16901864111423492,
          0.10741999745368958,
          -0.21600255370140076,
          -0.1528598815202713,
          -0.0548543781042099,
          -0.08094023168087006,
          -0.11290299892425537,
          0.25152844190597534,
          -0.02951645851135254,
          -0.11678634583950043,
          -0.15885046124458313
        ],
        [
          -0.29529109597206116,
          -0.01650974154472351,
          -0.2171885371208191,
          -0.07053934037685394,
          0.29258400201797485,
          0.18309175968170166,
          0.10845121741294861,
          -0.2410930097103119,
          -0.16684593260288239,
          -0.2496936172246933,
          -0.23958422243595123
        ],
        [
          0.346060574054718,
          0.11763950437307358,
          0.22138740122318268,
          0.2997909486293793,
          1.137613296508789,
          0.40152403712272644,
          -0.07108437269926071,
          0.1733728051185608,
          0.3653603792190552,
          0.4304135739803314,
          -0.02046862803399563
        ],
        [
          0.26934385299682617,
          0.5038943290710449,
          0.2548835575580597,
          0.43751493096351624,
          1.1125636100769043,
          0.44208812713623047,
          -0.2747117877006531,
          -0.18520957231521606,
          -0.0073122018948197365,
          0.3798452317714691,
          0.22001121938228607
        ],
        [
          -0.220823734998703,
          -0.21204900741577148,
          -0.056212007999420166,
          0.17131158709526062,
          -0.10357210040092468,
          -0.0560409277677536,
          -0.12689289450645447,
          0.21050232648849487,
          -0.10915002226829529,
          0.052683740854263306,
          0.14554181694984436
        ],
        [
          -0.22612348198890686,
          0.30081069469451904,
          -0.019664347171783447,
          0.21096926927566528,
          -0.033755868673324585,
          -0.22712603211402893,
          0.21092915534973145,
          -0.21050961315631866,
          -0.2760605216026306,
          -0.14955830574035645,
          0.13214918971061707
        ],
        [
          0.02193523198366165,
          0.312426894903183,
          0.16822178661823273,
          0.17889931797981262,
          0.8544592261314392,
          0.33665522933006287,
          0.07237503677606583,
          0.02514055371284485,
          0.4258985221385956,
          0.11452654749155045,
          0.4922826290130615
        ],
        [
          0.26186031103134155,
          0.11061453819274902,
          -0.12312933802604675,
          0.016131728887557983,
          -0.06419242918491364,
          -0.016138434410095215,
          0.19558757543563843,
          0.08934077620506287,
          -0.2517865002155304,
          -0.2472878098487854,
          0.1638442873954773
        ],
        [
          -0.1280272752046585,
          -0.2761741876602173,
          0.09350582957267761,
          -0.13657380640506744,
          -0.2775460481643677,
          -0.19647255539894104,
          0.22756880521774292,
          0.0983971357345581,
          -0.2574031352996826,
          0.23374517261981964,
          -0.09207440912723541
        ],
        [
          0.15439844131469727,
          -0.10960055887699127,
          -0.18960127234458923,
          -0.20412477850914001,
          -0.21083033084869385,
          -0.012761235237121582,
          -0.17063568532466888,
          -0.2890278697013855,
          0.02358931303024292,
          -0.09354430437088013,
          -0.20005233585834503
        ],
        [
          0.5040118098258972,
          0.3778568506240845,
          0.5795624256134033,
          0.21761617064476013,
          1.401018500328064,
          0.13645215332508087,
          -0.2109227031469345,
          -0.057188332080841064,
          0.019903192296624184,
          0.3420160412788391,
          0.00913245603442192
        ]
      ],
      "bias": [
        0.02232697606086731,
        -0.10729216039180756,
        0.15769855678081512,
        0.3235018253326416,
        -0.27968427538871765,
        -0.24689024686813354,
        0.3424665629863739,
        -0.23596179485321045,
        0.06364571303129196,
        -0.056598082184791565,
        0.3385150730609894
      ]
    },
    {
      "type": "relu"
    },
    {
      "type": "linear",
      "weight": [
        [
          -0.16194377839565277,
          -0.24507534503936768,
          0.35317540168762207,
          0.28416702151298523,
          -0.008344411849975586,
          0.09100872278213501,
          0.35691025853157043,
          0.14162030816078186,
          -0.0013510101707652211,
          0.037094056606292725,
          0.23919840157032013
        ]
      ],
      "bias": [
        0.40792641043663025
      ]
    }
  ],
  "feature_columns": [
    "demand",
    "total_wind_generation_capacity",
    "total_generation_capacity",
    "residual_demand",
    "next_generation_capacity",
    "next_demand",
    "own_generation_capacity",
    "next_own_generation_capacity"
  ],
  "target_columns": [
    "target_bid_W1_B1"
  ]
}