{
  "generator_name": "W1",
  "activation": "relu",
  "layers": [
    {
      "type": "linear",
      "weight": [
        [
          -0.8533539772033691,
          0.3281010389328003,
          0.10290203988552094,
          0.47249144315719604,
          -0.4659349322319031,
          0.03174892067909241,
          -0.026920698583126068,
          -0.16072729229927063
        ],
        [
          -0.3570476770401001,
          -0.1240781620144844,
          -0.12911094725131989,
          0.24083365499973297,
          -0.2136135697364807,
          -0.11753959208726883,
          0.11683623492717743,
          0.28174328804016113
        ],
        [
          -0.318473756313324,
          0.18670961260795593,
          -0.2628459930419922,
          -0.111875981092453,
          -0.16078369319438934,
          0.039711952209472656,
          -0.24686968326568604,
          -0.29758527874946594
        ],
        [
          -0.3397432863712311,
          -0.08442863821983337,
          0.18770334124565125,
          0.1520983874797821,
          0.13156196475028992,
          -0.07965242862701416,
          -0.21128079295158386,
          0.1043652594089508
        ],
        [
          -0.08282438665628433,
          0.332874596118927,
          -0.30836644768714905,
          0.3941856026649475,
          0.06104770302772522,
          -0.24000653624534607,
          -0.2019547075033188,
          -0.08947472274303436
        ],
        [
          -0.23470871150493622,
          -0.0655670166015625,
          -0.25989675521850586,
          -0.3415661156177521,
          -0.23714371025562286,
          -0.2695116102695465,
          0.2574840486049652,
          0.2777538597583771
        ],
        [
          0.16356505453586578,
          0.7892987728118896,
          0.12168458849191666,
          0.8530468344688416,
          0.7992180585861206,
          0.16221019625663757,
          0.3214508295059204,
          0.23917073011398315
        ]
      ],
      "bias": [
        0.6866285800933838,
        -0.14256159961223602,
        0.10954371094703674,
        -0.2607533931732178,
        0.4377588629722595,
        -0.3159463405609131,
        0.7501970529556274
      ]
    },
    {
      "type": "relu"
    },
    {
      "type": "linear",
      "weight": [
        [
          1.3115445375442505,
          -0.12587063014507294,
          0.3704269826412201,
          0.02711045742034912,
          0.7429381608963013,
          0.2135210931301117,
          0.6668017506599426
        ],
        [
          0.08290916681289673,
          -0.03805837035179138,
          0.2921689450740814,
          -0.2647392749786377,
          0.25045880675315857,
          0.36298683285713196,
          -0.16312314569950104
        ],
        [
          1.2146339416503906,
          -0.06364292651414871,
          0.14704719185829163,
          -0.3046393096446991,
          0.745349109172821,
          -0.31385722756385803,
          0.7590528130531311
        ],
        [
          -0.03722214698791504,
          0.042699962854385376,
          -0.02658766508102417,
          0.31620052456855774,
          0.29801687598228455,
          0.37151774764060974,
          -0.3079755902290344
        ],
        [
          0.3699919879436493,
          -0.18912498652935028,
          0.3104725182056427,
          0.3560146987438202,
          0.10437583923339844,
          -0.20342040061950684,
          0.3359551429748535
        ],
        [
          -0.34574368596076965,
          0.19054336845874786,
          0.2626282870769501,
          0.17141476273536682,
          0.19561053812503815,
          -0.10221084952354431,
          -0.07620237022638321
        ],
        [
          -0.3092963695526123,
          0.016024349257349968,
          -0.11137384176254272,
          -0.3163171410560608,
          0.16909679770469666,
          0.3346894085407257,
          -0.3941483795642853
        ]
      ],
      "bias": [
        0.3679007887840271,
        -0.08622229099273682,
        0.03153931349515915,
        -0.04842942953109741,
        0.5112769603729248,
        -0.01023043878376484,
        0.2607719302177429
      ]
    },
    {
      "type": "relu"
    },
    {
      "type": "linear",
      "weight": [
        [
          0.5566723346710205,
          -0.052968829870224,
          0.5478284955024719,
          -0.018522799015045166,
          0.6792900562286377,
          -0.28012174367904663,
          0.17070455849170685
        ],
        [
          0.4284018576145172,
          -0.1134364902973175,
          0.7420087456703186,
          -0.3308056890964508,
          0.54825758934021,
          0.24905218183994293,
          -0.25398293137550354
        ]
      ],
      "bias": [
        0.06623536348342896,
        0.11237090080976486
      ]
    }
  ],
  "feature_columns": [
    "demand",
    "total_wind_generation_capacity",
    "total_generation_capacity",
    "residual_demand",
    "next_generation_capacity",
    "next_demand",
    "own_generation_capacity",
    "next_own_generation_capacity"
  ],
  "target_columns": [
    "target_bid_W1_B1",
    "target_bid_W1_B2"
  ]
}