{
  "generator_name": "W1",
  "activation": "relu",
  "layers": [
    {
      "type": "linear",
      "weight": [
        [
          0.07507689297199249,
          -0.2172170877456665,
          -0.0031288559548556805,
          -0.14529192447662354,
          -0.22410282492637634,
          0.20936676859855652,
          -0.2754416763782501,
          -0.1953078657388687,
          0.1198197603225708,
          0.10587058216333389,
          -0.20968592166900635
        ],
        [
          -0.2181316316127777,
          -0.25796034932136536,
          -0.12543612718582153,
          0.13484960794448853,
          0.05208718776702881,
          0.1068979799747467,
          -0.2693411409854889,
          0.05977335572242737,
          0.1414523422718048,
          -0.24647772312164307,
          -0.011850118637084961
        ],
        [
          -0.23786896467208862,
          0.044317424297332764,
          -0.15775074064731598,
          -0.1052105575799942,
          0.29833751916885376,
          0.1138952374458313,
          -0.05331547558307648,
          0.1287306547164917,
          0.07914116978645325,
          -0.21458977460861206,
          -0.08615173399448395
        ],
        [
          -0.054081425070762634,
          -0.13529977202415466,
          -0.26035788655281067,
          -0.2927125096321106,
          -0.2032642662525177,
          0.29674118757247925,
          -0.21005889773368835,
          0.2383289933204651,
          0.062288492918014526,
          0.09501799941062927,
          0.01221361756324768
        ],
        [
          0.1754978597164154,
          0.21499207615852356,
          0.11151500046253204,
          -0.20166294276714325,
          -0.15027371048927307,
          -0.056293267756700516,
          0.15021401643753052,
          -0.23654794692993164,
          0.1901538223028183,
          -0.2777960002422333,
          -0.3131348788738251
        ],
        [
          -0.25412270426750183,
          0.33691951632499695,
          0.24769018590450287,
          0.8936097621917725,
          0.20583179593086243,
          -0.037367939949035645,
          0.2376444935798645,
          0.04932485893368721,
          0.0513342022895813,
          0.0241402480751276,
          0.09506265819072723
        ],
        [
          0.10338851064443588,
          0.06810366362333298,
          -0.21152405440807343,
          0.012333997525274754,
          -0.03277726098895073,
          -0.1407206803560257,
          -0.14920717477798462,
          -0.170159712433815,
          -0.16678260266780853,
          -0.13440032303333282,
          -0.32949280738830566
        ],
        [
          0.17098122835159302,
          -0.23940904438495636,
          0.029569774866104126,
          -0.14971232414245605,
          -0.18282335996627808,
          0.2543768882751465,
          0.10655507445335388,
          0.19340983033180237,
          -0.1697835922241211,
          -0.2842656373977661,
          -0.0447007417678833
        ],
        [
          -0.8333117961883545,
          0.5469738841056824,
          0.20914192497730255,
          1.0701920986175537,
          -0.04418693855404854,
          0.05454191192984581,
          0.3013729453086853,
          0.048245497047901154,
          0.1876978874206543,
          0.028993038460612297,
          -0.3306576907634735
        ],
        [
          -0.7388313412666321,
          0.6032921671867371,
          0.21438945829868317,
          0.8730695247650146,
          0.021348554641008377,
          -0.014483390375971794,
          -0.3089340627193451,
          -0.08166152238845825,
          0.07108500599861145,
          -0.20201416313648224,
          0.05494019389152527
        ],
        [
          0.18913845717906952,
          0.04944558069109917,
          0.12323726713657379,
          0.1298692673444748,
          -0.3046847879886627,
          -0.06765566766262054,
          -0.19144167006015778,
          -0.20105361938476562,
          0.2171836942434311,
          -0.1984223574399948,
          -0.31407779455184937
        ]
      ],
      "bias": [
        0.1413469910621643,
        -0.07901234924793243,
        -0.1787414252758026,
        0.061496734619140625,
        -0.08450665324926376,
        1.0197020769119263,
        0.09804554283618927,
        -0.09757354855537415,
        1.0124047994613647,
        1.3949408531188965,
        -0.10496614128351212
      ]
    },
    {
      "type": "relu"
    },
    {
      "type": "linear",
      "weight": [
        [
          -0.0426335409283638,
          0.1444690227508545,
          -0.2812870740890503,
          -0.18610036373138428,
          -0.17819932103157043,
          0.5888460874557495,
          -0.13332146406173706,
          0.19010919332504272,
          0.7226057052612305,
          0.6901573538780212,
          -0.17777802050113678
        ],
        [
          -0.25698524713516235,
          0.2148190140724182,
          0.08851709961891174,
          0.07877087593078613,
          -0.2198624610900879,
          0.6895095705986023,
          -0.029833247885107994,
          -0.06060445308685303,
          0.5722278356552124,
          0.8425697088241577,
          -0.17667187750339508
        ]
      ],
      "bias": [
        0.6989169716835022,
        0.49724170565605164
      ]
    }
  ],
  "feature_columns": [
    "demand",
    "total_wind_generation_capacity",
    "total_generation_capacity",
    "residual_demand",
    "previous_generation_capacity",
    "previous_demand",
    "next_generation_capacity",
    "next_demand",
    "own_generation_capacity",
    "previous_own_generation_capacity",
    "next_own_generation_capacity"
  ],
  "target_columns": [
    "target_bid_W1_B1",
    "target_bid_W1_B2"
  ]
}