{
  "generator_name": "W1",
  "activation": "relu",
  "layers": [
    {
      "type": "linear",
      "weight": [
        [
          0.16539356112480164,
          0.19403475522994995,
          -0.03103870153427124,
          0.5160462856292725,
          0.3269767165184021,
          0.06133010983467102,
          -0.15103039145469666,
          0.2817726731300354,
          0.09415321052074432,
          0.06639393419027328,
          -0.09189041703939438
        ],
        [
          -0.8684976100921631,
          0.4080822169780731,
          0.07113654911518097,
          0.9924337267875671,
          -0.26260676980018616,
          -0.303825706243515,
          -0.0714314803481102,
          -0.27178430557250977,
          -0.040801260620355606,
          -0.2493063062429428,
          -0.24660110473632812
        ],
        [
          0.047674231231212616,
          0.337289035320282,
          0.3249325156211853,
          0.18566757440567017,
          0.48010963201522827,
          0.5152789950370789,
          0.1569284200668335,
          0.480618417263031,
          0.11931915581226349,
          0.14129944145679474,
          0.2662801444530487
        ],
        [
          -0.15039706230163574,
          0.18785202503204346,
          0.3810672461986542,
          0.11995864659547806,
          0.21792834997177124,
          0.2552286386489868,
          0.3385515809059143,
          -0.02527591399848461,
          0.3175796568393707,
          0.17893582582473755,
          0.3645581305027008
        ],
        [
          -0.08897969126701355,
          0.0785653293132782,
          0.1942194402217865,
          0.25329238176345825,
          -0.11773329973220825,
          -0.15456263720989227,
          -0.07201313972473145,
          -0.03542092442512512,
          -0.2983580231666565,
          -0.23385901749134064,
          -0.27403581142425537
        ]
      ],
      "bias": [
        0.4322299659252167,
        1.1190686225891113,
        0.6345139741897583,
        0.4873340129852295,
        -0.1857651174068451
      ]
    },
    {
      "type": "relu"
    },
    {
      "type": "linear",
      "weight": [
        [
          0.37992069125175476,
          0.12745186686515808,
          0.04317396879196167,
          0.5063559412956238,
          0.31681615114212036
        ],
        [
          0.37260308861732483,
          1.4939322471618652,
          0.3356837034225464,
          0.03937007114291191,
          0.3109872341156006
        ],
        [
          0.12302571535110474,
          1.0116100311279297,
          0.7215412855148315,
          0.5254372954368591,
          0.10236287117004395
        ],
        [
          0.7528946995735168,
          1.0683287382125854,
          0.24399416148662567,
          0.5887629985809326,
          -0.023034483194351196
        ],
        [
          0.027132928371429443,
          -0.10766783356666565,
          -0.20933234691619873,
          -0.2501388490200043,
          0.1732170581817627
        ]
      ],
      "bias": [
        0.1914844661951065,
        0.7139517068862915,
        0.24179334938526154,
        0.4707469642162323,
        0.027381479740142822
      ]
    },
    {
      "type": "relu"
    },
    {
      "type": "linear",
      "weight": [
        [
          0.30193090438842773,
          0.4477215111255646,
          0.3192996084690094,
          0.19015733897686005,
          0.43440139293670654
        ],
        [
          -0.12816181778907776,
          0.3297642767429352,
          0.5070431232452393,
          0.5165453553199768,
          -0.047108352184295654
        ]
      ],
      "bias": [
        0.6101487278938293,
        -0.21248859167099
      ]
    }
  ],
  "feature_columns": [
    "demand",
    "total_wind_generation_capacity",
    "total_generation_capacity",
    "residual_demand",
    "previous_generation_capacity",
    "previous_demand",
    "next_generation_capacity",
    "next_demand",
    "own_generation_capacity",
    "previous_own_generation_capacity",
    "next_own_generation_capacity"
  ],
  "target_columns": [
    "target_bid_W1_B1",
    "target_bid_W1_B2"
  ]
}