{
  "generator_name": "W2",
  "activation": "relu",
  "layers": [
    {
      "type": "linear",
      "weight": [
        [
          -0.09607776999473572,
          0.08190421015024185,
          0.08177656680345535,
          -0.13169048726558685,
          -0.09579980373382568,
          -0.2255653589963913,
          0.14128237962722778,
          -0.05542495846748352
        ],
        [
          0.10714038461446762,
          0.6515467762947083,
          0.5158942341804504,
          0.5950194001197815,
          0.3465171158313751,
          0.21827645599842072,
          0.5485503077507019,
          0.20036746561527252
        ],
        [
          0.08024165034294128,
          0.055214762687683105,
          0.039885491132736206,
          0.10372519493103027,
          -0.3145759701728821,
          -0.03134220838546753,
          -0.001450181007385254,
          -0.21192008256912231
        ],
        [
          0.21779140830039978,
          -0.017249196767807007,
          0.004243969917297363,
          -0.3251538574695587,
          0.08193439245223999,
          -0.17142833769321442,
          -0.17521746456623077,
          0.15240547060966492
        ],
        [
          0.2858338952064514,
          0.05126151069998741,
          0.28391724824905396,
          0.01816127821803093,
          0.1405734121799469,
          0.08818916231393814,
          0.1769091635942459,
          0.0610780194401741
        ],
        [
          0.13161416351795197,
          -0.05089501291513443,
          -0.2135918289422989,
          0.23708069324493408,
          -0.2930212616920471,
          -0.30740466713905334,
          0.08536297082901001,
          0.05119866505265236
        ],
        [
          0.1274380087852478,
          0.17502951622009277,
          -0.07535084336996078,
          0.2741537392139435,
          -0.16306135058403015,
          0.18198874592781067,
          0.09433100372552872,
          -0.09286979585886002
        ],
        [
          -0.11429432034492493,
          -0.04363676905632019,
          -0.1400785893201828,
          -0.28354886174201965,
          0.2487371861934662,
          -0.06085208058357239,
          -0.022480696439743042,
          -0.003597348928451538
        ],
        [
          -0.14297997951507568,
          0.33131471276283264,
          0.16685965657234192,
          0.038006722927093506,
          0.18083342909812927,
          -0.3390917181968689,
          -0.3231992721557617,
          -0.11415296792984009
        ],
        [
          -0.26938575506210327,
          0.08280370384454727,
          -0.005745658650994301,
          0.2021729052066803,
          0.038226060569286346,
          0.08662493526935577,
          0.3196293115615845,
          0.10383471846580505
        ],
        [
          -0.2988091707229614,
          0.08131977915763855,
          -0.22686707973480225,
          -0.06187966465950012,
          -0.23758965730667114,
          -0.26383185386657715,
          -0.0006831884384155273,
          0.32349368929862976
        ]
      ],
      "bias": [
        -0.12462856620550156,
        0.8396742343902588,
        -0.1720932126045227,
        -0.3062514662742615,
        -0.22525140643119812,
        -0.14892181754112244,
        0.269270658493042,
        -0.22745093703269958,
        -0.2806400656700134,
        -0.03740522265434265,
        -0.11324246227741241
      ]
    },
    {
      "type": "relu"
    },
    {
      "type": "linear",
      "weight": [
        [
          -0.18922577798366547,
          -0.24085339903831482,
          -0.14902912080287933,
          -0.05289605259895325,
          0.12882739305496216,
          -0.13430196046829224,
          -0.053303688764572144,
          0.2702888250350952,
          -0.003410547971725464,
          -0.1392795890569687,
          0.03975600004196167
        ],
        [
          -0.1677207499742508,
          0.23051047325134277,
          -0.12578794360160828,
          -0.06008756160736084,
          -0.046054575592279434,
          0.21313466131687164,
          0.40279901027679443,
          0.189467191696167,
          -0.13640515506267548,
          0.2873317301273346,
          0.1884704828262329
        ],
        [
          -0.25104787945747375,
          0.4768495261669159,
          0.18284443020820618,
          -0.08773505687713623,
          -0.06054941937327385,
          0.03263678774237633,
          0.327250212430954,
          -0.217863529920578,
          0.1072293221950531,
          0.31449660658836365,
          0.22897154092788696
        ],
        [
          0.11790594458580017,
          -0.05484956502914429,
          -0.2248326539993286,
          -0.26066699624061584,
          -0.20435208082199097,
          0.18031328916549683,
          -0.19778728485107422,
          -0.13010220229625702,
          0.05616000294685364,
          -0.2691918611526489,
          -0.2689942717552185
        ],
        [
          -0.015771569684147835,
          0.5255720019340515,
          0.20017385482788086,
          0.01314842700958252,
          0.11110739409923553,
          0.12085974216461182,
          0.2869367003440857,
          0.0985669493675232,
          0.15638768672943115,
          0.15181778371334076,
          -0.02162349224090576
        ],
        [
          -0.17841178178787231,
          0.47793048620224,
          -0.19566771388053894,
          -0.14499682188034058,
          0.024614719673991203,
          -0.2768838107585907,
          0.1482970118522644,
          -0.09331168234348297,
          0.06143483519554138,
          -0.05555923655629158,
          -0.2449602484703064
        ],
        [
          0.21319305896759033,
          0.3383369445800781,
          0.22947204113006592,
          -0.11800789833068848,
          0.6435514688491821,
          0.27820664644241333,
          0.21180427074432373,
          -0.2269764095544815,
          -0.27874812483787537,
          0.258695513010025,
          -0.03695586323738098
        ],
        [
          0.13936588168144226,
          0.5844019651412964,
          -0.04876402020454407,
          0.13468143343925476,
          -0.46958330273628235,
          -0.13040338456630707,
          0.06364330649375916,
          0.2673928141593933,
          -0.1307516247034073,
          0.533551037311554,
          0.11931759119033813
        ],
        [
          -0.2830278277397156,
          -0.05666225031018257,
          0.17236551642417908,
          -0.11998142302036285,
          0.24281519651412964,
          -0.15406809747219086,
          0.08182254433631897,
          0.09756216406822205,
          -0.26925912499427795,
          0.16290821135044098,
          0.1050800085067749
        ],
        [
          0.10037559270858765,
          0.2867192327976227,
          -0.0931486040353775,
          -0.1838439702987671,
          0.5584200620651245,
          0.22612130641937256,
          0.15654605627059937,
          -0.2759093642234802,
          0.20239567756652832,
          0.5460538864135742,
          0.1714891791343689
        ],
        [
          0.07406885921955109,
          0.8134310245513916,
          0.19579342007637024,
          0.07846328616142273,
          -0.15209127962589264,
          -0.13389742374420166,
          0.05934081971645355,
          0.2481890320777893,
          0.2482295036315918,
          0.07103583961725235,
          0.186456561088562
        ]
      ],
      "bias": [
        -0.13337165117263794,
        0.5469573140144348,
        0.4852598011493683,
        -0.2502228617668152,
        0.25083139538764954,
        0.5274452567100525,
        -0.6886000037193298,
        0.27033668756484985,
        -0.12195129692554474,
        -0.6228107213973999,
        0.5067055821418762
      ]
    },
    {
      "type": "relu"
    },
    {
      "type": "linear",
      "weight": [
        [
          -0.12606656551361084,
          0.29599347710609436,
          0.6955860257148743,
          0.050631970167160034,
          0.2653118371963501,
          0.7446187138557434,
          -1.3580580949783325,
          0.46673646569252014,
          0.26051706075668335,
          -1.3556503057479858,
          0.7149044275283813
        ]
      ],
      "bias": [
        0.21860797703266144
      ]
    }
  ],
  "feature_columns": [
    "demand",
    "total_wind_generation_capacity",
    "total_generation_capacity",
    "residual_demand",
    "next_generation_capacity",
    "next_demand",
    "own_generation_capacity",
    "next_own_generation_capacity"
  ],
  "target_columns": [
    "target_bid_W2_B1"
  ]
}