{
  "generator_name": "W2",
  "activation": "relu",
  "layers": [
    {
      "type": "linear",
      "weight": [
        [
          0.04106186702847481,
          0.5214030742645264,
          0.31907981634140015,
          0.2868648171424866,
          0.24011649191379547,
          0.3477838933467865,
          0.2892831563949585,
          0.30110153555870056,
          0.06386606395244598,
          -0.06257332116365433,
          0.07139556109905243
        ],
        [
          -0.642522931098938,
          0.16913065314292908,
          0.11464043706655502,
          0.7091293334960938,
          -0.11221969127655029,
          0.28486835956573486,
          0.27743780612945557,
          -0.14925412833690643,
          0.32329869270324707,
          0.13323239982128143,
          -0.26901838183403015
        ],
        [
          0.13288430869579315,
          -0.25384464859962463,
          0.1849634051322937,
          -0.28429341316223145,
          -0.21557854115962982,
          0.12032746523618698,
          0.2466660887002945,
          -0.0716831237077713,
          -0.04452919214963913,
          0.01005564071238041,
          0.05847364291548729
        ],
        [
          -0.31842678785324097,
          0.2033720165491104,
          0.06609345227479935,
          0.8274298906326294,
          0.00937662459909916,
          -0.16752149164676666,
          -0.19003376364707947,
          0.0347658172249794,
          0.050391942262649536,
          0.07104592770338058,
          0.08647221326828003
        ],
        [
          -0.9513979554176331,
          0.3084043860435486,
          0.4846222400665283,
          1.010622501373291,
          -0.02943413518369198,
          -0.4917110204696655,
          -0.14522376656532288,
          -0.13960370421409607,
          0.00159902882296592,
          -0.22595305740833282,
          -0.07631007581949234
        ],
        [
          -0.5504572987556458,
          0.19685259461402893,
          0.5199154019355774,
          1.0237555503845215,
          0.2065344750881195,
          0.17754466831684113,
          0.13706837594509125,
          0.0415019616484642,
          0.1705787479877472,
          -0.1479206085205078,
          -0.08335714787244797
        ],
        [
          -0.21078991889953613,
          0.02727690152823925,
          0.13172146677970886,
          -0.3413866460323334,
          0.14104512333869934,
          -0.19462046027183533,
          -0.17230303585529327,
          0.09202329814434052,
          -0.11181660741567612,
          -0.08586007356643677,
          -0.33688023686408997
        ],
        [
          0.02558167651295662,
          0.11043966561555862,
          -0.1301649659872055,
          -0.28260931372642517,
          0.27865785360336304,
          -0.30490320920944214,
          -0.05087916925549507,
          0.0795256569981575,
          0.1289602816104889,
          -0.14598995447158813,
          0.06272314488887787
        ],
        [
          0.06289149075746536,
          -0.08825116604566574,
          -0.10253952443599701,
          -0.012222789227962494,
          -0.20227867364883423,
          -0.1565241664648056,
          0.09808005392551422,
          -0.23299072682857513,
          -0.2384134829044342,
          -0.285929411649704,
          -0.027661006897687912
        ],
        [
          -0.18136250972747803,
          -0.2904612720012665,
          0.18031802773475647,
          0.07994726300239563,
          -0.11940115690231323,
          0.062481313943862915,
          -0.048018425703048706,
          0.17358943819999695,
          -0.09240283071994781,
          -0.24185054004192352,
          -0.05543060600757599
        ],
        [
          -0.03863273188471794,
          0.2038300633430481,
          -0.306970477104187,
          0.18738870322704315,
          -0.009667198173701763,
          -0.07060185074806213,
          -0.2774474024772644,
          -0.04778376221656799,
          -0.2788545787334442,
          -0.051650065928697586,
          0.07088471204042435
        ]
      ],
      "bias": [
        0.8915867209434509,
        1.115278720855713,
        -0.11770951747894287,
        1.2945350408554077,
        1.4360697269439697,
        1.1187913417816162,
        0.19108669459819794,
        -0.25527092814445496,
        0.08505258709192276,
        -0.23318475484848022,
        -0.1250704824924469
      ]
    },
    {
      "type": "relu"
    },
    {
      "type": "linear",
      "weight": [
        [
          0.4443521201610565,
          0.5548890829086304,
          -0.2224929928779602,
          0.5127148032188416,
          0.6285044550895691,
          0.4724254012107849,
          -0.22453053295612335,
          -0.09012860059738159,
          -0.19948138296604156,
          0.07386928796768188,
          -0.20567166805267334
        ],
        [
          0.44298964738845825,
          0.5456330180168152,
          0.029635204002261162,
          0.5068140625953674,
          0.6347384452819824,
          0.49407443404197693,
          0.13512571156024933,
          -0.2538067698478699,
          -0.05346507206559181,
          -0.21143725514411926,
          -0.199000746011734
        ]
      ],
      "bias": [
        0.25460124015808105,
        0.2375694215297699
      ]
    }
  ],
  "feature_columns": [
    "demand",
    "total_wind_generation_capacity",
    "total_generation_capacity",
    "residual_demand",
    "previous_generation_capacity",
    "previous_demand",
    "next_generation_capacity",
    "next_demand",
    "own_generation_capacity",
    "previous_own_generation_capacity",
    "next_own_generation_capacity"
  ],
  "target_columns": [
    "target_bid_W2_B1",
    "target_bid_W2_B2"
  ]
}