{
  "generator_name": "W2",
  "activation": "relu",
  "layers": [
    {
      "type": "linear",
      "weight": [
        [
          -0.21809327602386475,
          -0.05173534154891968,
          0.0025939547922462225,
          -0.1666647046804428,
          0.24710309505462646,
          0.10620471835136414,
          0.09955771267414093,
          -0.06997326761484146,
          -0.09787634015083313,
          -0.21023909747600555,
          0.06343655288219452
        ],
        [
          -0.03960021585226059,
          0.16841311752796173,
          -0.3061486482620239,
          0.36440739035606384,
          0.08628088235855103,
          0.004501332528889179,
          -0.06337691843509674,
          0.2051132172346115,
          -0.05909845978021622,
          -0.2787177562713623,
          -0.3217242658138275
        ],
        [
          -0.5436716079711914,
          0.29858094453811646,
          0.2192920297384262,
          -1.6561710834503174,
          -0.10821865499019623,
          -0.2504170835018158,
          -0.024303212761878967,
          -0.3227090835571289,
          -0.24250300228595734,
          0.13416945934295654,
          -0.04344306141138077
        ],
        [
          -0.7723697423934937,
          0.30446597933769226,
          0.08267390727996826,
          0.5623639822006226,
          -0.16390740871429443,
          -0.062037691473960876,
          0.02642807736992836,
          -0.23365581035614014,
          -0.012663641013205051,
          -0.11675971001386642,
          0.0504244901239872
        ],
        [
          0.6186923384666443,
          0.7365264892578125,
          0.6429322957992554,
          0.6527706980705261,
          0.5593493580818176,
          0.20668236911296844,
          0.20527668297290802,
          0.4605894386768341,
          0.47585877776145935,
          0.7313077449798584,
          0.17676648497581482
        ]
      ],
      "bias": [
        -0.03283528611063957,
        0.6351597309112549,
        0.0635296106338501,
        0.5206083059310913,
        0.41433537006378174
      ]
    },
    {
      "type": "relu"
    },
    {
      "type": "linear",
      "weight": [
        [
          -0.08709999918937683,
          0.09409411251544952,
          -1.5805485248565674,
          -0.38574182987213135,
          0.6403111219406128
        ],
        [
          0.3312565088272095,
          0.35922208428382874,
          0.6862941980361938,
          0.7472386956214905,
          0.4065815806388855
        ],
        [
          -0.33619391918182373,
          0.5818588733673096,
          0.4250972867012024,
          0.5789127945899963,
          0.9759829044342041
        ],
        [
          -0.17172205448150635,
          -0.32692962884902954,
          0.30944007635116577,
          0.3945709466934204,
          -0.3545781970024109
        ],
        [
          -0.11074569821357727,
          0.9603663682937622,
          0.950951874256134,
          1.559715986251831,
          0.8893901705741882
        ]
      ],
      "bias": [
        -0.6759902834892273,
        0.43961843848228455,
        0.5201790928840637,
        -0.14309537410736084,
        0.028959328308701515
      ]
    },
    {
      "type": "relu"
    },
    {
      "type": "linear",
      "weight": [
        [
          -0.9850090742111206,
          0.35754692554473877,
          0.4207243323326111,
          -0.3678762912750244,
          0.7657553553581238
        ],
        [
          -1.197115182876587,
          0.1689436286687851,
          0.8507513999938965,
          -0.2812662124633789,
          0.4171850383281708
        ]
      ],
      "bias": [
        0.4173358678817749,
        0.7499328255653381
      ]
    }
  ],
  "feature_columns": [
    "demand",
    "total_wind_generation_capacity",
    "total_generation_capacity",
    "residual_demand",
    "previous_generation_capacity",
    "previous_demand",
    "next_generation_capacity",
    "next_demand",
    "own_generation_capacity",
    "previous_own_generation_capacity",
    "next_own_generation_capacity"
  ],
  "target_columns": [
    "target_bid_W2_B1",
    "target_bid_W2_B2"
  ]
}