{
  "generator_name": "W2",
  "activation": "relu",
  "layers": [
    {
      "type": "linear",
      "weight": [
        [
          -0.1598033607006073,
          0.12251192331314087,
          -0.10525071620941162,
          -0.3192800283432007,
          0.23133185505867004,
          -0.20070034265518188,
          0.1931246817111969,
          -0.20764711499214172
        ],
        [
          -0.45197969675064087,
          0.04885286092758179,
          -0.13309411704540253,
          0.45647484064102173,
          -0.10297233611345291,
          -0.2042730450630188,
          -0.08055088669061661,
          -0.35105741024017334
        ],
        [
          -0.0060969446785748005,
          0.20765233039855957,
          0.5633634328842163,
          0.15685813128948212,
          0.10923098772764206,
          0.391948938369751,
          0.0459723137319088,
          0.3204411566257477
        ],
        [
          0.07924854755401611,
          -0.13550052046775818,
          -0.06245496869087219,
          -0.17727482318878174,
          -0.22042910754680634,
          -0.3481530249118805,
          0.08953216671943665,
          0.15146705508232117
        ],
        [
          0.11633938550949097,
          0.3264876902103424,
          0.5640642046928406,
          0.3394007086753845,
          0.3213590383529663,
          0.1985681802034378,
          0.35379594564437866,
          0.5511366724967957
        ],
        [
          -0.3353472948074341,
          0.14209742844104767,
          0.2789073586463928,
          0.1887592375278473,
          0.11559213697910309,
          -0.27028989791870117,
          -0.06491050869226456,
          -0.19220569729804993
        ],
        [
          -0.38290560245513916,
          0.054739344865083694,
          0.1488584280014038,
          -0.3475705683231354,
          -0.20989581942558289,
          -0.11246616393327713,
          -0.1183256283402443,
          0.06284955888986588
        ]
      ],
      "bias": [
        -0.21139872074127197,
        0.9540746808052063,
        0.5547633767127991,
        -0.10316422581672668,
        0.8435110449790955,
        -0.25572124123573303,
        0.08293311297893524
      ]
    },
    {
      "type": "relu"
    },
    {
      "type": "linear",
      "weight": [
        [
          -0.22434484958648682,
          0.8479233384132385,
          0.564354419708252,
          0.10809698700904846,
          0.7166759371757507,
          -0.3444271981716156,
          -0.2246229201555252
        ],
        [
          -0.19636213779449463,
          -0.11728429794311523,
          -0.2775275707244873,
          -0.0010439157485961914,
          -0.18489539623260498,
          0.25110653042793274,
          -0.09923258423805237
        ],
        [
          -0.007589548826217651,
          1.5514376163482666,
          0.5837741494178772,
          0.07118675112724304,
          0.5705651640892029,
          0.178151473402977,
          0.07317574322223663
        ],
        [
          0.1723768413066864,
          0.8639407157897949,
          0.06941191852092743,
          0.03079506754875183,
          -0.09739671647548676,
          -0.1266196370124817,
          0.19432295858860016
        ],
        [
          -0.35016191005706787,
          1.0304715633392334,
          0.4821590185165405,
          0.1876424252986908,
          0.6759588122367859,
          -0.37359490990638733,
          -0.24946142733097076
        ],
        [
          0.18068799376487732,
          0.20345282554626465,
          -0.13247400522232056,
          -0.06962576508522034,
          -0.0883161723613739,
          0.11864970624446869,
          0.24445919692516327
        ],
        [
          -0.11385449767112732,
          -0.012717664241790771,
          -0.04598918557167053,
          -0.18276099860668182,
          0.044997990131378174,
          -0.13963419198989868,
          -0.08624079823493958
        ]
      ],
      "bias": [
        0.7262297868728638,
        -0.2037985622882843,
        0.12904785573482513,
        0.1811172366142273,
        0.35690590739250183,
        -0.033057864755392075,
        -0.16256985068321228
      ]
    },
    {
      "type": "relu"
    },
    {
      "type": "linear",
      "weight": [
        [
          0.6433160901069641,
          -0.2382201999425888,
          0.3311246335506439,
          0.8903962969779968,
          0.21490684151649475,
          -0.2771112620830536,
          -0.31631341576576233
        ],
        [
          0.10372544825077057,
          0.2415449321269989,
          0.45403361320495605,
          0.6346163749694824,
          0.6541546583175659,
          -0.13293664157390594,
          -0.16675545275211334
        ]
      ],
      "bias": [
        0.27656739950180054,
        0.6190864443778992
      ]
    }
  ],
  "feature_columns": [
    "demand",
    "total_wind_generation_capacity",
    "total_generation_capacity",
    "residual_demand",
    "next_generation_capacity",
    "next_demand",
    "own_generation_capacity",
    "next_own_generation_capacity"
  ],
  "target_columns": [
    "target_bid_W2_B1",
    "target_bid_W2_B2"
  ]
}