{
  "generator_name": "W2",
  "activation": "relu",
  "layers": [
    {
      "type": "linear",
      "weight": [
        [
          0.2302139699459076,
          0.573630690574646,
          0.19777199625968933,
          0.17681166529655457,
          0.03356519713997841,
          0.034974291920661926,
          0.08986548334360123,
          0.4793776571750641
        ],
        [
          -0.15020455420017242,
          0.04277397319674492,
          0.1612585037946701,
          -0.060286734253168106,
          -0.2861020863056183,
          -0.1937435269355774,
          -0.35889169573783875,
          0.2839886248111725
        ],
        [
          -0.34941384196281433,
          0.06752999126911163,
          -0.22598926723003387,
          0.11097276955842972,
          -0.14642386138439178,
          -0.1276790201663971,
          0.1233692616224289,
          0.043372202664613724
        ],
        [
          0.12161348760128021,
          0.10323312133550644,
          0.3734080493450165,
          0.453155517578125,
          -0.04864062741398811,
          -0.14853547513484955,
          0.019310295581817627,
          -0.051413826644420624
        ],
        [
          -0.07877637445926666,
          0.5328148603439331,
          0.2952827513217926,
          0.5559424757957458,
          0.5038320422172546,
          0.2901991307735443,
          0.18463437259197235,
          -0.03713151440024376
        ],
        [
          0.2852148711681366,
          -0.0641697496175766,
          -0.27295443415641785,
          -0.273187518119812,
          -0.03332461789250374,
          -0.12919320166110992,
          -0.008154679089784622,
          -0.11153485625982285
        ],
        [
          0.3268704116344452,
          -0.06308817863464355,
          -0.011017054319381714,
          -0.0374237596988678,
          0.10720911622047424,
          -0.3534959852695465,
          0.3148016631603241,
          -0.15406876802444458
        ],
        [
          0.8221811652183533,
          0.20617128908634186,
          -0.04975225031375885,
          0.1995261311531067,
          0.417752206325531,
          0.16450901329517365,
          0.43397700786590576,
          0.39044851064682007
        ],
        [
          -0.5652610063552856,
          -0.1859375536441803,
          0.2451983094215393,
          0.6358516812324524,
          -0.26237842440605164,
          0.09439612179994583,
          0.20267938077449799,
          0.013150352984666824
        ],
        [
          -0.04156586527824402,
          -0.24352073669433594,
          -0.3170795142650604,
          -0.352854460477829,
          -0.3391900658607483,
          -0.1613541543483734,
          -0.21295154094696045,
          -0.28192460536956787
        ],
        [
          0.4252621531486511,
          -0.14073874056339264,
          -0.07962119579315186,
          0.38055920600891113,
          0.3294094502925873,
          -0.07921503484249115,
          0.04209206998348236,
          0.36306801438331604
        ]
      ],
      "bias": [
        0.7873082756996155,
        0.1018572747707367,
        -0.015723522752523422,
        0.6780324578285217,
        0.3825210928916931,
        0.2226542979478836,
        -0.33553269505500793,
        -0.4529692232608795,
        0.5431270003318787,
        0.08519533276557922,
        0.7338153719902039
      ]
    },
    {
      "type": "relu"
    },
    {
      "type": "linear",
      "weight": [
        [
          0.14263272285461426,
          0.22590969502925873,
          0.26003268361091614,
          0.23398959636688232,
          0.016236426308751106,
          0.02076692506670952,
          0.040159136056900024,
          0.11440686136484146,
          -0.28023117780685425,
          -0.22463713586330414,
          -0.05813124030828476
        ],
        [
          0.604868471622467,
          -0.032336682081222534,
          -0.01168882381170988,
          0.6353675723075867,
          0.4615998864173889,
          -0.11316422373056412,
          0.0663592517375946,
          -0.6858303546905518,
          0.5085360407829285,
          0.2698793411254883,
          0.25978583097457886
        ],
        [
          0.14918628334999084,
          0.265059232711792,
          -0.0970209538936615,
          -0.2511332631111145,
          -0.13611549139022827,
          -0.10516504943370819,
          0.26376157999038696,
          0.16372022032737732,
          -0.17495757341384888,
          0.031132489442825317,
          -0.09758760035037994
        ],
        [
          0.5906362533569336,
          -0.16951118409633636,
          0.0838899314403534,
          0.4262085556983948,
          0.6836398839950562,
          0.14594165980815887,
          0.028855979442596436,
          -0.7918640971183777,
          0.41947948932647705,
          0.04520779848098755,
          0.6399273872375488
        ],
        [
          -0.26141759753227234,
          -0.04948261380195618,
          0.16051331162452698,
          0.1999785602092743,
          0.1447596549987793,
          -0.018600523471832275,
          -0.08118373155593872,
          -0.07656291127204895,
          0.2186550498008728,
          -0.2721927762031555,
          -0.2219655066728592
        ],
        [
          0.19622910022735596,
          -0.015041129663586617,
          -0.1770961880683899,
          0.36594560742378235,
          0.4814111590385437,
          -0.17710164189338684,
          0.15990695357322693,
          -0.6766627430915833,
          0.6148619651794434,
          0.08355256915092468,
          0.12850382924079895
        ],
        [
          -0.03393245115876198,
          -0.17905539274215698,
          -0.11666978150606155,
          0.1898839920759201,
          0.28857648372650146,
          -0.028169404715299606,
          -0.04136982560157776,
          -0.36312755942344666,
          0.34103211760520935,
          -0.10692690312862396,
          0.16638769209384918
        ],
        [
          -0.39284518361091614,
          0.1377778947353363,
          0.1367155760526657,
          -0.025266608223319054,
          -0.2658817172050476,
          -0.08248620480298996,
          0.2849422097206116,
          0.18282675743103027,
          0.1972612738609314,
          -0.19240695238113403,
          0.17033056914806366
        ],
        [
          0.08296817541122437,
          0.2536265254020691,
          0.10454490780830383,
          -0.17665979266166687,
          -0.07969066500663757,
          0.12508425116539001,
          -0.006006151437759399,
          -0.2998456060886383,
          -0.06523890793323517,
          0.27174311876296997,
          0.08185118436813354
        ],
        [
          0.474027544260025,
          0.17846308648586273,
          0.06283919513225555,
          0.6369705200195312,
          0.5996671319007874,
          -0.20463308691978455,
          -0.20571845769882202,
          -0.8320621252059937,
          0.7147705554962158,
          0.10501867532730103,
          0.6092073321342468
        ],
        [
          -0.12515853345394135,
          0.007005184888839722,
          -0.06580694019794464,
          -0.017812669277191162,
          -0.008719682693481445,
          0.09027132391929626,
          -0.17596055567264557,
          -0.039138197898864746,
          0.007198303937911987,
          -0.14427734911441803,
          -0.20945990085601807
        ]
      ],
      "bias": [
        -0.12367408722639084,
        0.7373958826065063,
        -0.15429534018039703,
        0.3846675753593445,
        -0.2553386390209198,
        0.6330548524856567,
        -0.12236899137496948,
        0.2251821905374527,
        -0.09593328833580017,
        0.6289911270141602,
        -0.035577088594436646
      ]
    },
    {
      "type": "relu"
    },
    {
      "type": "linear",
      "weight": [
        [
          -0.12475421279668808,
          0.4812336266040802,
          0.22708266973495483,
          0.4565783143043518,
          -0.05216372013092041,
          0.13694019615650177,
          0.32189321517944336,
          -0.24356739223003387,
          -0.12240339815616608,
          0.2802923023700714,
          -0.10344292223453522
        ],
        [
          -0.055124130100011826,
          0.13042080402374268,
          -0.22825784981250763,
          0.3475852608680725,
          -0.29441019892692566,
          0.4925180673599243,
          -0.3453616201877594,
          -0.0005379139329306781,
          -0.19426070153713226,
          0.5667504668235779,
          -0.11203289031982422
        ]
      ],
      "bias": [
        0.15025998651981354,
        0.2947615683078766
      ]
    }
  ],
  "feature_columns": [
    "demand",
    "total_wind_generation_capacity",
    "total_generation_capacity",
    "residual_demand",
    "next_generation_capacity",
    "next_demand",
    "own_generation_capacity",
    "next_own_generation_capacity"
  ],
  "target_columns": [
    "target_bid_W2_B1",
    "target_bid_W2_B2"
  ]
}