{
  "generator_name": "W3",
  "activation": "relu",
  "layers": [
    {
      "type": "linear",
      "weight": [
        [
          0.03372770547866821,
          -0.16354848444461823,
          0.2226414978504181,
          -0.2919459939002991,
          0.0079098641872406,
          0.1837383210659027,
          0.23329225182533264,
          -0.1617306023836136
        ],
        [
          -1.746890902519226,
          0.6076157093048096,
          0.8673828840255737,
          0.11551804095506668,
          0.2823992967605591,
          -0.32438284158706665,
          0.7748746275901794,
          -0.049863073974847794
        ],
        [
          -0.33050262928009033,
          0.21361026167869568,
          0.21057948470115662,
          0.11559295654296875,
          -0.21410968899726868,
          0.26164761185646057,
          -0.3346196711063385,
          -0.08327803015708923
        ],
        [
          -1.3189492225646973,
          0.6363510489463806,
          0.5790159106254578,
          0.14607375860214233,
          0.38953152298927307,
          0.03540617600083351,
          0.40717050433158875,
          0.15574052929878235
        ],
        [
          0.2667982578277588,
          -0.08413205295801163,
          0.1800275444984436,
          -0.2626362144947052,
          -0.07375125586986542,
          -0.3252795338630676,
          0.13103294372558594,
          -0.27152496576309204
        ],
        [
          -1.483844518661499,
          0.6329330205917358,
          1.0326635837554932,
          0.2906828820705414,
          0.2808394134044647,
          -0.34815385937690735,
          1.0121647119522095,
          -0.19399946928024292
        ],
        [
          -1.3901653289794922,
          0.8935800790786743,
          0.4366511106491089,
          0.46334606409072876,
          0.2983456254005432,
          0.04680411145091057,
          0.707314133644104,
          -0.11224007606506348
        ]
      ],
      "bias": [
        -0.2871135175228119,
        1.0650372505187988,
        -0.3375118374824524,
        1.149932861328125,
        0.02274871990084648,
        1.3997116088867188,
        1.2750738859176636
      ]
    },
    {
      "type": "relu"
    },
    {
      "type": "linear",
      "weight": [
        [
          0.15018585324287415,
          0.09297796338796616,
          -0.23250442743301392,
          -0.1156860962510109,
          -0.36676761507987976,
          -0.1329779177904129,
          0.24361351132392883
        ],
        [
          0.32869502902030945,
          -0.3338501751422882,
          -0.13936392962932587,
          -0.2006828784942627,
          -0.0018298029899597168,
          -0.14821472764015198,
          -0.05072832107543945
        ],
        [
          -0.010280728340148926,
          0.10868537425994873,
          0.3626924455165863,
          -0.25965070724487305,
          0.025444457307457924,
          -0.056521132588386536,
          0.13946084678173065
        ],
        [
          0.2647516429424286,
          -0.19152173399925232,
          -0.10682061314582825,
          0.23279419541358948,
          -0.11290711164474487,
          -0.1435416042804718,
          -0.1750738024711609
        ],
        [
          0.2406274378299713,
          0.11213836073875427,
          0.22286483645439148,
          -0.08107289671897888,
          -0.12800058722496033,
          -0.09500160813331604,
          -0.12862372398376465
        ],
        [
          0.00011488795280456543,
          0.2207721471786499,
          0.36548665165901184,
          0.0711698904633522,
          0.2101120501756668,
          -0.2431214451789856,
          -0.040263738483190536
        ],
        [
          -0.08999800682067871,
          0.9750242829322815,
          -0.05487418174743652,
          1.0074756145477295,
          -0.22020551562309265,
          0.8700546026229858,
          1.1222878694534302
        ]
      ],
      "bias": [
        -0.37040624022483826,
        0.06914743781089783,
        -0.11947149783372879,
        -0.041632652282714844,
        -0.2918195128440857,
        -0.09673431515693665,
        0.9576947093009949
      ]
    },
    {
      "type": "relu"
    },
    {
      "type": "linear",
      "weight": [
        [
          -0.31683287024497986,
          -0.19962827861309052,
          -0.08521126210689545,
          -0.1884545236825943,
          -0.025962233543395996,
          -0.1884184628725052,
          0.7100684642791748
        ],
        [
          0.23597021400928497,
          -0.0222243070602417,
          -0.35487237572669983,
          -0.015469461679458618,
          -0.1959182471036911,
          -0.02441265806555748,
          0.7047760486602783
        ]
      ],
      "bias": [
        0.4145033657550812,
        0.468382865190506
      ]
    }
  ],
  "feature_columns": [
    "demand",
    "total_wind_generation_capacity",
    "total_generation_capacity",
    "residual_demand",
    "next_generation_capacity",
    "next_demand",
    "own_generation_capacity",
    "next_own_generation_capacity"
  ],
  "target_columns": [
    "target_bid_W3_B1",
    "target_bid_W3_B2"
  ]
}