{
  "generator_name": "W3",
  "activation": "relu",
  "layers": [
    {
      "type": "linear",
      "weight": [
        [
          -0.2570841610431671,
          0.24466776847839355,
          -0.13891096413135529,
          -0.27686119079589844,
          0.09783869981765747,
          -0.05999429523944855,
          -0.25220099091529846,
          0.22650563716888428,
          -0.16615043580532074,
          0.044840872287750244,
          -0.2735446095466614
        ],
        [
          0.011944416910409927,
          -0.1435413509607315,
          -0.08324754238128662,
          -0.14866778254508972,
          0.11464721709489822,
          -0.23069071769714355,
          -0.08494959771633148,
          -0.016509708017110825,
          0.061441417783498764,
          -0.2452491819858551,
          0.07409682869911194
        ],
        [
          -3.2266852855682373,
          2.6348960399627686,
          2.5354020595550537,
          -7.37189245223999,
          0.09509889036417007,
          -1.487114429473877,
          0.12050630897283554,
          -1.355006456375122,
          2.5780467987060547,
          0.007514024153351784,
          0.16087181866168976
        ],
        [
          -0.2982364892959595,
          -0.08554255217313766,
          -0.3421851098537445,
          0.08236492425203323,
          -0.15146717429161072,
          -0.1981368213891983,
          -0.044285908341407776,
          0.08775421977043152,
          -0.029851797968149185,
          -0.2745535969734192,
          0.18746262788772583
        ],
        [
          -1.1383854150772095,
          0.23255440592765808,
          0.27648234367370605,
          0.8659905195236206,
          -0.08264372497797012,
          0.32109248638153076,
          0.09876205772161484,
          0.30281081795692444,
          0.3100142180919647,
          -0.0436805821955204,
          -0.2983959913253784
        ],
        [
          0.20065517723560333,
          -0.15324364602565765,
          0.11024034768342972,
          -0.3168753385543823,
          0.0335366316139698,
          0.10812384635210037,
          -0.17237909138202667,
          -0.2827857732772827,
          0.07122509181499481,
          -0.12010914087295532,
          0.24103663861751556
        ],
        [
          -1.060430884361267,
          0.18568116426467896,
          0.37707000970840454,
          0.8943306803703308,
          -0.17661474645137787,
          0.05765411630272865,
          0.3793855905532837,
          0.14492067694664001,
          0.05465209484100342,
          -0.026043156161904335,
          -0.3442446291446686
        ],
        [
          -0.7669931054115295,
          0.3824159801006317,
          0.3151480257511139,
          0.7306793928146362,
          0.36558786034584045,
          0.51189786195755,
          -0.049092456698417664,
          0.3157317638397217,
          0.16298416256904602,
          0.11424104124307632,
          0.05535690486431122
        ],
        [
          -3.4907071590423584,
          2.5810301303863525,
          2.8158257007598877,
          -4.735581874847412,
          0.28217804431915283,
          -1.235581398010254,
          0.22801072895526886,
          -1.1237611770629883,
          2.1274659633636475,
          -0.21387183666229248,
          0.0031208922155201435
        ],
        [
          -0.8792661428451538,
          0.5927941799163818,
          0.03691179305315018,
          1.101191520690918,
          -0.10147023946046829,
          -0.08750011026859283,
          -0.0020065747667104006,
          0.009530602023005486,
          0.33432087302207947,
          0.0027608834207057953,
          0.15773586928844452
        ],
        [
          -0.214089497923851,
          -0.16058142483234406,
          0.05235503241419792,
          0.10462627559900284,
          -0.26032930612564087,
          -0.08147384971380234,
          0.017607171088457108,
          0.08314873278141022,
          -0.04848803952336311,
          -0.07811743766069412,
          0.190159872174263
        ]
      ],
      "bias": [
        0.06565997004508972,
        0.17390915751457214,
        0.7431080341339111,
        0.019300777465105057,
        1.3828346729278564,
        -0.03598366305232048,
        1.275668740272522,
        1.0347002744674683,
        0.2715442180633545,
        0.9522560238838196,
        -0.08516447991132736
      ]
    },
    {
      "type": "relu"
    },
    {
      "type": "linear",
      "weight": [
        [
          0.2747313380241394,
          -0.1223749965429306,
          -5.419775485992432,
          -0.05220017582178116,
          0.8383197784423828,
          0.26227569580078125,
          0.568587601184845,
          0.5424001812934875,
          6.532077312469482,
          0.6516334414482117,
          0.01871325634419918
        ],
        [
          0.03793853521347046,
          0.042420387268066406,
          -5.410872936248779,
          -0.2166043221950531,
          0.5957531332969666,
          -0.26100096106529236,
          0.9045841097831726,
          0.625572681427002,
          6.521981716156006,
          0.38181015849113464,
          -0.056361373513936996
        ]
      ],
      "bias": [
        0.5588368773460388,
        0.7619687914848328
      ]
    }
  ],
  "feature_columns": [
    "demand",
    "total_wind_generation_capacity",
    "total_generation_capacity",
    "residual_demand",
    "previous_generation_capacity",
    "previous_demand",
    "next_generation_capacity",
    "next_demand",
    "own_generation_capacity",
    "previous_own_generation_capacity",
    "next_own_generation_capacity"
  ],
  "target_columns": [
    "target_bid_W3_B1",
    "target_bid_W3_B2"
  ]
}