{
  "generator_name": "W3",
  "activation": "relu",
  "layers": [
    {
      "type": "linear",
      "weight": [
        [
          -0.6791870594024658,
          0.2803144156932831,
          -0.19986018538475037,
          -0.11071766912937164,
          0.041139524430036545,
          0.08612276613712311,
          -0.17637476325035095,
          -0.3547545373439789
        ],
        [
          -0.581032931804657,
          0.2667439579963684,
          0.21946635842323303,
          -0.17038294672966003,
          0.29473012685775757,
          -0.2652941942214966,
          0.012870673090219498,
          0.06541554629802704
        ],
        [
          0.12400339543819427,
          -0.035826876759529114,
          -0.0630674734711647,
          -0.07994231581687927,
          0.08720910549163818,
          -0.17190836369991302,
          -0.27734044194221497,
          -0.00011378657654859126
        ],
        [
          -1.2869702577590942,
          0.876551628112793,
          0.6139329671859741,
          -1.5335530042648315,
          -0.048352379351854324,
          0.008288012817502022,
          -0.026366597041487694,
          0.036149345338344574
        ],
        [
          -0.02957671880722046,
          -0.11823754012584686,
          0.09665882587432861,
          0.06331557035446167,
          0.061500757932662964,
          0.150389164686203,
          -0.3089034855365753,
          -0.2825687825679779
        ],
        [
          0.6073994636535645,
          -0.2056116759777069,
          -0.492796391248703,
          0.6493107080459595,
          0.0848347395658493,
          -0.22076860070228577,
          0.03720686212182045,
          0.04474341496825218
        ],
        [
          -1.6173356771469116,
          0.8647767305374146,
          0.9160799980163574,
          -1.819525957107544,
          0.058859504759311676,
          0.0032302322797477245,
          0.0510067380964756,
          -0.053797222673892975
        ],
        [
          -0.5558617115020752,
          0.3329576849937439,
          0.46995556354522705,
          -0.10471031069755554,
          0.07695917040109634,
          -0.18059790134429932,
          0.20281222462654114,
          0.17543654143810272
        ],
        [
          -0.5485149025917053,
          0.05204113945364952,
          0.38786184787750244,
          0.5589529275894165,
          -0.14703769981861115,
          0.4256766438484192,
          -0.14228256046772003,
          -0.27603939175605774
        ],
        [
          -0.29460856318473816,
          -0.3411484360694885,
          -0.16100820899009705,
          0.25913098454475403,
          0.23660913109779358,
          0.3507390320301056,
          -0.09193682670593262,
          -0.03363296389579773
        ],
        [
          0.08237968385219574,
          0.2608533501625061,
          -0.2314390391111374,
          0.6475992798805237,
          0.18569526076316833,
          -0.3863532543182373,
          0.19905254244804382,
          0.17652611434459686
        ]
      ],
      "bias": [
        0.3834005296230316,
        0.686225950717926,
        0.07147523015737534,
        0.25399288535118103,
        -0.2082723081111908,
        -0.11645049601793289,
        0.26935866475105286,
        0.7890768647193909,
        0.6768671274185181,
        -0.28074756264686584,
        0.1904822587966919
      ]
    },
    {
      "type": "relu"
    },
    {
      "type": "linear",
      "weight": [
        [
          0.37543654441833496,
          0.18343870341777802,
          0.024822397157549858,
          2.7322731018066406,
          0.04982319474220276,
          -0.06506405770778656,
          2.337265968322754,
          0.410269170999527,
          -0.1263449341058731,
          -0.09748397767543793,
          -0.15154412388801575
        ],
        [
          -0.10589563846588135,
          -0.16883884370326996,
          -0.17838041484355927,
          -0.2458118051290512,
          -0.1636098474264145,
          0.12284620106220245,
          0.11406570672988892,
          -0.1418137401342392,
          0.15134494006633759,
          0.24880194664001465,
          -0.047339651733636856
        ],
        [
          0.413683146238327,
          0.4479234218597412,
          -0.04577591270208359,
          3.186594009399414,
          -0.026974886655807495,
          -0.307487815618515,
          2.122180223464966,
          0.6175513863563538,
          0.6358817219734192,
          -0.18089500069618225,
          0.4595656394958496
        ],
        [
          0.5501622557640076,
          0.4669516086578369,
          -0.02736973576247692,
          3.1106369495391846,
          -0.14299070835113525,
          0.12943652272224426,
          2.163081407546997,
          0.4590790569782257,
          0.602254331111908,
          0.23052161931991577,
          0.6322675347328186
        ],
        [
          0.1618749499320984,
          0.16815687716007233,
          0.3212951421737671,
          3.851614475250244,
          0.00630226731300354,
          0.03997447341680527,
          2.434272289276123,
          0.4487245976924896,
          0.32402274012565613,
          0.11951559782028198,
          -0.04852590709924698
        ],
        [
          0.18001073598861694,
          -0.09685421735048294,
          0.09255804866552353,
          -0.12972985208034515,
          -0.2214299738407135,
          -0.3590238690376282,
          0.07414302974939346,
          -0.09718924015760422,
          0.2038598209619522,
          -0.07865133881568909,
          -0.3107040524482727
        ],
        [
          -0.20871007442474365,
          -0.30702143907546997,
          -0.021297842264175415,
          0.20857442915439606,
          0.12293660640716553,
          0.19216126203536987,
          0.035255253314971924,
          0.11018337309360504,
          0.07168109714984894,
          -0.04598459601402283,
          -0.19664537906646729
        ],
        [
          0.14044342935085297,
          0.17814864218235016,
          -0.12527325749397278,
          1.4271293878555298,
          -0.09274989366531372,
          0.42788299918174744,
          1.7774900197982788,
          0.03453188017010689,
          -0.12856684625148773,
          -0.22105738520622253,
          -0.3534441590309143
        ],
        [
          0.4515071511268616,
          0.33446004986763,
          0.10514779388904572,
          3.4753527641296387,
          0.10096263885498047,
          -0.11061830818653107,
          2.2247395515441895,
          0.43579021096229553,
          0.5886355042457581,
          0.289955735206604,
          0.543617844581604
        ],
        [
          0.41253796219825745,
          0.38921013474464417,
          -0.05031021684408188,
          3.434307813644409,
          -0.12926454842090607,
          -0.3228340744972229,
          1.7166748046875,
          0.4134368300437927,
          0.5122743248939514,
          0.1620340347290039,
          0.5956960916519165
        ],
        [
          0.22897225618362427,
          0.18321119248867035,
          0.059327710419893265,
          -12.758852005004883,
          0.005614548921585083,
          -0.18345822393894196,
          -10.049490928649902,
          0.16965268552303314,
          0.29954928159713745,
          0.068502277135849,
          0.34697216749191284
        ]
      ],
      "bias": [
        -0.5916677713394165,
        -0.20333288609981537,
        0.6144239902496338,
        0.4387488067150116,
        0.5893437266349792,
        0.05652647465467453,
        -0.16983596980571747,
        0.015483342111110687,
        0.3863721489906311,
        0.35926300287246704,
        -0.370962530374527
      ]
    },
    {
      "type": "relu"
    },
    {
      "type": "linear",
      "weight": [
        [
          -3.837285041809082,
          -0.0720992162823677,
          0.7058897614479065,
          0.6800150871276855,
          1.4177615642547607,
          -0.13944926857948303,
          -0.012695256620645523,
          -1.3406490087509155,
          0.7079797983169556,
          0.7999891042709351,
          -7.605645179748535
        ]
      ],
      "bias": [
        0.5251742601394653
      ]
    }
  ],
  "feature_columns": [
    "demand",
    "total_wind_generation_capacity",
    "total_generation_capacity",
    "residual_demand",
    "next_generation_capacity",
    "next_demand",
    "own_generation_capacity",
    "next_own_generation_capacity"
  ],
  "target_columns": [
    "target_bid_W3_B1"
  ]
}