{
  "generator_name": "W3",
  "activation": "relu",
  "layers": [
    {
      "type": "linear",
      "weight": [
        [
          0.03545023500919342,
          -0.21885055303573608,
          -0.22465954720973969,
          0.19678956270217896,
          -0.12223893404006958,
          -0.26994776725769043,
          -0.06138152256608009,
          -0.10600411891937256,
          -0.1928282380104065,
          0.24209310114383698,
          -0.07589474320411682
        ],
        [
          -0.12266238033771515,
          -0.2421712577342987,
          0.029457271099090576,
          -0.28691139817237854,
          -0.16362418234348297,
          -0.24706962704658508,
          -0.043973714113235474,
          0.18491193652153015,
          0.28614377975463867,
          0.0015193819999694824,
          -0.038900673389434814
        ],
        [
          0.17054420709609985,
          -0.162336528301239,
          0.27838462591171265,
          -0.012890547513961792,
          0.02709856629371643,
          -0.25264373421669006,
          -0.15179046988487244,
          -0.22533529996871948,
          -0.011237084865570068,
          -0.2258004993200302,
          -0.13544900715351105
        ],
        [
          -0.6629433035850525,
          0.6324460506439209,
          0.7564405202865601,
          0.0945204347372055,
          0.20344142615795135,
          -0.6701259613037109,
          0.22345051169395447,
          -0.36995142698287964,
          0.5539640188217163,
          0.21529245376586914,
          -0.13621023297309875
        ],
        [
          -0.7943210005760193,
          0.8087829947471619,
          0.9972013831138611,
          -0.02567213959991932,
          -0.10009933263063431,
          -0.7226784825325012,
          0.08488235622644424,
          -0.23257030546665192,
          0.575728714466095,
          -0.18874004483222961,
          0.35440802574157715
        ]
      ],
      "bias": [
        -0.18188349902629852,
        -0.009422600269317627,
        -0.17087991535663605,
        0.9908940196037292,
        1.1112900972366333
      ]
    },
    {
      "type": "relu"
    },
    {
      "type": "linear",
      "weight": [
        [
          0.3648109436035156,
          0.06727701425552368,
          0.28889310359954834,
          0.4654589891433716,
          0.5115339756011963
        ],
        [
          -0.15435534715652466,
          -0.31649839878082275,
          -0.32680606842041016,
          -0.06779593229293823,
          -0.11108335852622986
        ],
        [
          -0.25619274377822876,
          0.19107365608215332,
          -0.04321008920669556,
          0.7164270281791687,
          0.6881273984909058
        ],
        [
          -0.13965053856372833,
          0.18101990222930908,
          -0.2756402790546417,
          0.8287777900695801,
          0.5328000783920288
        ],
        [
          -0.06943448632955551,
          -0.0996171236038208,
          -0.05118507146835327,
          0.4989219605922699,
          1.009466528892517
        ]
      ],
      "bias": [
        0.158162921667099,
        -0.43877628445625305,
        0.5441532731056213,
        0.7499399781227112,
        0.35326260328292847
      ]
    },
    {
      "type": "relu"
    },
    {
      "type": "linear",
      "weight": [
        [
          -0.03438851237297058,
          0.19342702627182007,
          0.9647580981254578,
          0.8188158273696899,
          0.4293060600757599
        ],
        [
          0.5455420017242432,
          -0.4090486466884613,
          0.39165911078453064,
          0.6641286015510559,
          0.7143566608428955
        ]
      ],
      "bias": [
        0.4460459053516388,
        0.7115240693092346
      ]
    }
  ],
  "feature_columns": [
    "demand",
    "total_wind_generation_capacity",
    "total_generation_capacity",
    "residual_demand",
    "previous_generation_capacity",
    "previous_demand",
    "next_generation_capacity",
    "next_demand",
    "own_generation_capacity",
    "previous_own_generation_capacity",
    "next_own_generation_capacity"
  ],
  "target_columns": [
    "target_bid_W3_B1",
    "target_bid_W3_B2"
  ]
}