{
  "generator_name": "W3",
  "activation": "relu",
  "layers": [
    {
      "type": "linear",
      "weight": [
        [
          0.21151956915855408,
          -0.36009618639945984,
          0.1537722498178482,
          -0.055909767746925354,
          -0.24648603796958923,
          0.13876020908355713,
          0.23258696496486664,
          -0.3163725435733795
        ],
        [
          0.14431369304656982,
          -0.2979497015476227,
          0.025227665901184082,
          -0.20222021639347076,
          0.19209618866443634,
          -0.3644741177558899,
          -0.032625842839479446,
          0.25772625207901
        ],
        [
          -0.22501830756664276,
          0.02442878857254982,
          0.023501213639974594,
          0.5124005079269409,
          -0.14576883614063263,
          -0.3886426091194153,
          -0.20734651386737823,
          0.14796851575374603
        ],
        [
          0.046157993376255035,
          0.041834913194179535,
          -0.05438903719186783,
          -0.2804079055786133,
          -0.33443349599838257,
          0.044713493436574936,
          0.2959159016609192,
          -0.19969063997268677
        ],
        [
          -1.8583769798278809,
          0.9373965263366699,
          0.9918357133865356,
          -1.5498929023742676,
          0.1684407889842987,
          0.019196564331650734,
          0.4953351318836212,
          -0.16782571375370026
        ],
        [
          0.17430201172828674,
          -0.22740183770656586,
          -0.323920875787735,
          -0.2116929590702057,
          0.2309267818927765,
          0.025786101818084717,
          -0.022511988878250122,
          -0.2414364516735077
        ],
        [
          -0.5358899235725403,
          0.4132668972015381,
          0.4013431668281555,
          0.3216549754142761,
          0.40291908383369446,
          -0.1509927660226822,
          0.2034771889448166,
          0.14745080471038818
        ],
        [
          -1.4122999906539917,
          0.548674464225769,
          1.1117322444915771,
          -1.3945192098617554,
          -0.00858465489000082,
          -0.056950949132442474,
          0.2665137052536011,
          0.014736596494913101
        ],
        [
          -0.3141893744468689,
          0.05670583248138428,
          0.09231391549110413,
          0.03875419497489929,
          -0.028922855854034424,
          -0.27657774090766907,
          -0.28314778208732605,
          -0.1942509412765503
        ],
        [
          -1.7193257808685303,
          0.9443684220314026,
          0.7032204270362854,
          -1.74246084690094,
          0.14899848401546478,
          -0.4516148269176483,
          0.681150496006012,
          0.37316691875457764
        ],
        [
          -0.6017329692840576,
          0.19277502596378326,
          0.33082687854766846,
          -0.09862177073955536,
          0.44022366404533386,
          -1.0392951965332031,
          0.46318957209587097,
          1.1439534425735474
        ]
      ],
      "bias": [
        -0.06832225620746613,
        -0.21718743443489075,
        0.7548003196716309,
        -0.07903338968753815,
        0.1201191172003746,
        -0.3464011549949646,
        0.5466098785400391,
        0.1832878738641739,
        -0.21273283660411835,
        0.04540165513753891,
        0.29425033926963806
      ]
    },
    {
      "type": "relu"
    },
    {
      "type": "linear",
      "weight": [
        [
          0.11676888167858124,
          -0.18556703627109528,
          0.7544885873794556,
          0.005366233643144369,
          0.7612822651863098,
          -0.1839258074760437,
          0.37459227442741394,
          1.0282337665557861,
          -0.12958398461341858,
          -2.251906633377075,
          0.4934462010860443
        ],
        [
          -0.15038001537322998,
          -0.23918308317661285,
          1.0654504299163818,
          0.0529203824698925,
          0.9212546944618225,
          0.15510836243629456,
          0.6399970650672913,
          0.8714913129806519,
          0.13267457485198975,
          -1.9651174545288086,
          0.5082994699478149
        ],
        [
          0.17900437116622925,
          -0.20395512878894806,
          0.0006358791142702103,
          0.2859395146369934,
          -0.1399850845336914,
          -0.13388592004776,
          -0.122249074280262,
          0.05136316642165184,
          0.06844332814216614,
          -0.14398856461048126,
          -0.313218891620636
        ],
        [
          0.2654699683189392,
          0.22875764966011047,
          0.23066410422325134,
          0.1894719898700714,
          -12.698709487915039,
          0.25286877155303955,
          0.07313087582588196,
          -7.352168560028076,
          0.24296385049819946,
          -1.5202300548553467,
          0.34276488423347473
        ],
        [
          0.07771014422178268,
          -0.17562313377857208,
          0.29562538862228394,
          0.027072589844465256,
          0.9452607035636902,
          0.253598690032959,
          0.6361398100852966,
          1.0680111646652222,
          0.09730193018913269,
          -1.90574312210083,
          0.6600764989852905
        ],
        [
          -0.06299513578414917,
          0.23521405458450317,
          -0.2260691374540329,
          -0.0092448890209198,
          0.2278180718421936,
          0.19587087631225586,
          -0.15795670449733734,
          -0.24699163436889648,
          -0.18474790453910828,
          -0.05369402468204498,
          -0.012473821640014648
        ],
        [
          -0.04188571870326996,
          -0.04198330268263817,
          0.3718644976615906,
          -0.03964051976799965,
          1.1565275192260742,
          -0.04293540120124817,
          0.5602619647979736,
          0.8454566597938538,
          0.09209597110748291,
          -1.8771299123764038,
          0.5771098136901855
        ],
        [
          0.05197933316230774,
          0.021062761545181274,
          0.15150314569473267,
          0.21289636194705963,
          0.1069476380944252,
          0.07809910178184509,
          -0.3108748197555542,
          0.23093903064727783,
          0.25881606340408325,
          -0.20169870555400848,
          -0.08228231966495514
        ],
        [
          0.03955864906311035,
          -0.09154461324214935,
          0.27241432666778564,
          0.1578294038772583,
          -0.10004498809576035,
          0.2060774564743042,
          -0.21403652429580688,
          -0.12119472771883011,
          -0.17601947486400604,
          0.1852348893880844,
          -5.710644245147705
        ],
        [
          -0.2825245261192322,
          0.009679103270173073,
          0.6804607510566711,
          0.00810185819864273,
          1.2003148794174194,
          0.0675957202911377,
          0.223129004240036,
          1.0895036458969116,
          -0.2772403061389923,
          -1.9718470573425293,
          0.45888131856918335
        ],
        [
          0.14554882049560547,
          0.02225223183631897,
          -0.07365714013576508,
          0.05579906702041626,
          -0.09818665683269501,
          -0.16992591321468353,
          0.06866735219955444,
          -0.22373197972774506,
          0.01888224482536316,
          0.13778537511825562,
          -0.1280284821987152
        ]
      ],
      "bias": [
        0.988175630569458,
        0.7313001751899719,
        0.030938012525439262,
        -0.04263293743133545,
        0.8928129076957703,
        -0.16943928599357605,
        0.8290991187095642,
        -0.005444738082587719,
        0.08062677085399628,
        0.9494990110397339,
        -0.19366294145584106
      ]
    },
    {
      "type": "relu"
    },
    {
      "type": "linear",
      "weight": [
        [
          0.7482376098632812,
          0.48864349722862244,
          0.11311180889606476,
          -6.84597635269165,
          0.7078456878662109,
          0.01213771104812622,
          0.7356599569320679,
          0.005080312490463257,
          0.20576217770576477,
          0.8690071105957031,
          -0.13552168011665344
        ],
        [
          0.5870234966278076,
          0.8052006363868713,
          -0.12013189494609833,
          -6.847367763519287,
          0.702411413192749,
          -0.07845908403396606,
          0.7229313254356384,
          -0.2548935115337372,
          0.21108891069889069,
          0.6505292654037476,
          0.14904910326004028
        ]
      ],
      "bias": [
        0.5326927900314331,
        0.5704663991928101
      ]
    }
  ],
  "feature_columns": [
    "demand",
    "total_wind_generation_capacity",
    "total_generation_capacity",
    "residual_demand",
    "next_generation_capacity",
    "next_demand",
    "own_generation_capacity",
    "next_own_generation_capacity"
  ],
  "target_columns": [
    "target_bid_W3_B1",
    "target_bid_W3_B2"
  ]
}